svm_type c_svc
kernel_type rbf
gamma 0.0214878
nr_class 4
total_sv 1120
rho -0.887105 -0.55238 -0.238516 0.2927 0.389867 0.590257
label 0 1 2 3
probA -5.1232 -6.11933 -7.17159 -4.60974 -8.39396 -4.99939
probB 0.440041 1.37779 1.15891 -0.207435 -1.99097 -0.88377
nr_sv 261 297 320 242
SV
0 0 0.1296721890231561 1:0.48988772 2:1.9620627 3:1.5411054 4:1.6417461 5:-0.36660475 6:1.8007333 7:0.033361765 8:-0.59926757 9:1.3094851 10:-0.59018403 11:0.5899743 12:-0.58889394 13:0.55112497 14:-0.58954293 15:0.47544863 16:1.9640155 17:0.41956229 18:1.6572073 19:0.47339251 20:1.6205542 21:-1.7857197 22:-1.6388417 23:0.36461443 24:-0.15352232 25:0.93265508 26:1.5319663 27:0.28952261 28:1.5212904 29:1.0129822 30:-1.5266261 31:0.76449788 32:-0.78233524 33:0.25454783 34:-2.5893665 35:0.59590372 36:-2.5932996 37:1.0968962 38:2.5913327 39:0.19707309 40:0.58271846 41:1.128946 42:1.6850285 43:1.7121542 44:1.6506009 45:1.0416189 46:-1.6677789 47:1.146497 48:0.28728467 49:-0.25830881 50:1.8199197 51:-0.42630761 52:1.7944366 53:0.86524472 54:-1.80716 55:-0.17933876 56:1.6270935 57:-0.20939984 58:1.6583134 59:-0.36834093 60:1.6287072 61:0.7718846 62:-1.643485 63:-0.16212426 64:0.99904009 
0.0715584149338598 0.1642613077102016 0.1642613077102016 1:1.9103949 2:2.0532854 3:-0.35322079 4:1.6923206 5:-1.0671859 6:1.8696061 7:2.1681272 8:0.82395645 9:1.9745518 10:-1.0174899 11:0.95433913 12:-1.0219539 13:-0.70855344 14:-1.0197209 15:2.5518289 16:0.28249545 17:1.9987493 18:1.6403196 19:0.43131903 20:1.6048549 21:-2.5721857 22:-1.6225557 23:2.1744432 24:1.5303813 25:3.3186174 26:1.51952 27:0.6382944 28:1.509125 29:0.068851605 30:-1.5143208 31:3.4432807 32:0.3459223 33:0.92080063 34:-2.4064649 35:-0.056729438 36:-2.409681 37:-2.0699885 38:2.4080728 39:1.2765229 40:0.050692328 41:4.6138618 42:1.6675242 43:1.5769957 44:1.6342358 45:-0.89513076 46:-1.6508509 47:4.4721739 48:1.0982781 49:2.0478561 50:1.7998033 51:0.066700038 52:1.7752534 53:-3.0835032 54:-1.7875142 55:2.4681915 56:2.2717281 57:2.2404282 58:1.6423904 59:0.25238567 60:1.6137011 61:-3.1780009 62:-1.6280253 63:2.6387148 64:1.8865983 
0 0.1642613077102016 0.1642613077102016 1:0.022259142 2:2.3040189 3:0.23708101 4:1.8281648 5:0.51178567 6:2.0567415 7:-0.030379105 8:-0.13655556 9:0.34143401 10:-1.0262698 11:0.72358877 12:-1.0309123 13:0.45673813 14:-1.0285898 15:0.030810761 16:0.98898267 17:-0.12835725 18:1.6168702 19:0.37499717 20:1.5830418 21:0.76389389 22:-1.5999347 23:0.034907026 24:-1.4940864 25:1.3303099 26:1.5046711 27:1.2727205 28:1.4946098 29:-1.0763366 30:-1.4996394 31:1.003373 32:-1.5674746 33:-0.035973157 34:-2.3496305 35:1.125235 36:-2.3526396 37:0.53312204 38:2.351135 39:0.12734509 40:0.98168663 41:3.1457777 42:1.647841 43:2.9198633 44:1.6158221 45:-0.67581426 46:-1.6318098 47:2.5426797 48:-1.6719643 49:0.21220087 50:1.7714079 51:-0.26870471 52:1.7481602 53:0.15409923 54:-1.7597753 55:0.33003225 56:-0.60211019 57:0.25750351 58:1.6200807 59:-0.023523326 60:1.5926644 61:0.16929665 62:-1.6063585 63:0.35910264 64:-1.3756979 
0 0.1012250583792077 0.1241750019239734 1:0.41238157 2:2.2324924 3:1.2648806 4:1.7904235 5:-0.99556243 6:2.0040556 7:0.34190212 8:-0.88317749 9:0.37518256 10:-1.1286065 11:0.67881898 12:-1.134939 13:-1.995469 14:-1.1317692 15:0.39888159 16:-0.12530036 17:-0.70451438 18:1.6099471 19:-0.0865688 20:1.5765957 21:-0.075332027 22:-1.593253 23:-0.75984012 24:0.17670938 25:0.59707818 26:1.4985759 27:1.5655171 28:1.4886502 29:-2.1991413 30:-1.4936122 31:0.076706269 32:-1.2916525 33:0.83093756 34:-2.1178384 35:1.5655516 36:-2.1200412 37:-1.0097726 38:2.11894 39:0.66762356 40:-0.52871896 41:0.33294215 42:1.6352373 43:1.5381264 44:1.6040222 45:-1.7416578 46:-1.6196126 47:-0.054743142 48:0.0014806699 49:0.82171587 50:1.7509305 51:1.2272021 52:1.7286063 53:-0.77317717 54:-1.7397633 55:0.13089137 56:0.67632787 57:0.78434348 58:1.6048764 59:1.3622352 60:1.5783166 61:-0.86645264 62:-1.5915867 63:0.053732211 64:-0.063034929 
0 0.07463352475276547 0.1464429852465697 1:0.6168906 2:2.0136157 3:1.0331786 4:1.6688349 5:-0.27263374 6:1.8386479 7:0.56173567 8:2.7933353 9:1.1255187 10:-1.2198944 11:0.57751913 12:-1.2280081 13:-0.0083868918 14:-1.2239444 15:1.4357324 16:2.0387704 17:-0.24620448 18:1.5942812 19:0.51066624 20:1.5620054 21:-0.50177904 22:-1.5781314 23:-0.35447605 24:-1.1132085 25:0.074841853 26:1.496663 27:0.91659619 28:1.4867798 29:0.22777917 30:-1.4917207 31:0.14946609 32:-0.9085647 33:0.86708702 34:-2.0297254 35:2.0462036 36:-2.0316464 37:-1.6040608 38:2.0306862 39:0.3228124 40:-1.2348941 41:-0.0032875804 42:1.6163619 43:1.185084 44:1.5863389 45:0.23916023 46:-1.6013398 47:-0.38826873 48:2.2631415 49:-0.091598227 50:1.7271441 51:1.0917003 52:1.7058795 53:0.5914411 54:-1.7165108 55:-0.84797932 56:0.8259339 57:-0.094713152 58:1.5877713 59:0.66890253 60:1.5621662 61:0.55223229 62:-1.5749636 63:-0.79847591 64:0.088981903 
0.005620402250282564 0.08189862318345963 0.1642613077102016 1:1.7215704 2:1.5598382 3:1.9901838 4:1.4012934 5:-0.82543494 6:1.4854421 7:1.5656439 8:2.9231324 9:1.7169098 10:-1.4564541 11:1.9587892 12:-1.46928 13:0.30995165 14:-1.4628513 15:1.5400426 16:0.99389579 17:1.7534808 18:1.5765153 19:1.3680534 20:1.5454464 21:-0.07405527 22:-1.5609761 23:2.0270471 24:-1.027227 25:1.5042051 26:1.4826321 27:1.5727295 28:1.4730589 29:0.14218134 30:-1.4778453 31:1.2412484 32:-0.83643866 33:1.2486444 34:-2.0782058 35:0.95324313 36:-2.08028 37:-0.51704399 38:2.0792431 39:1.3652725 40:-0.93831031 41:0.82096895 42:1.5887516 43:2.2179827 44:1.5604531 45:1.280491 46:-1.5746013 47:0.77140757 48:-1.1182815 49:0.93523484 50:1.6957082 51:0.76608932 52:1.6758219 53:-0.027109093 54:-1.6857694 55:0.56250153 56:-0.2812289 57:0.87026867 58:1.565139 59:0.58046065 60:1.5407824 61:-0.0057252445 62:-1.5529615 63:0.5120059 64:-0.93174883 
0.06635405971176113 0.162363202470628 0.159240945061625 1:0.18171925 2:1.3806712 3:1.044667 4:1.2899066 5:-0.27296104 6:1.3422 7:-0.056699344 8:-0.5209612 9:0.19299951 10:-1.4251532 11:-0.087644774 12:-1.4372884 13:-0.34517024 14:-1.4312066 15:-0.64174711 16:0.64055536 17:-0.60320921 18:1.565103 19:-0.065798696 20:1.5348027 21:-0.10791463 22:-1.5499525 23:-0.55544738 24:-0.98941019 25:-0.61724668 26:1.4629287 27:0.22110928 28:1.4537865 29:-0.075706162 30:-1.4583582 31:-0.94566749 32:-1.1387683 33:-0.077332318 34:-2.0391857 35:-0.47751109 36:-2.0411373 37:-1.2177679 38:2.0401618 39:-0.018020715 40:-0.70465326 41:0.013200795 42:1.5721154 43:1.2685938 44:1.5448412 45:-0.80292292 46:-1.5584825 47:-0.32933281 48:-1.6332273 49:1.3880956 50:1.6753561 51:0.97866844 52:1.656348 53:-1.2696174 54:-1.6658595 55:1.3104536 56:-0.96028624 57:1.2979948 58:1.5490718 59:1.0557657 60:1.5255912 61:-1.1554465 62:-1.5373363 63:1.1782508 64:-1.6011072 
0.07180567360435394 0.1642613077102016 0.1642613077102016 1:3.4787525 2:1.6325794 3:2.8520433 4:1.4482625 5:0.18282153 6:1.5447204 7:2.372596 8:-0.51689001 9:2.7654793 10:-1.0543857 11:2.5836449 12:-1.0594381 13:-0.73943873 14:-1.0569102 15:2.3945905 16:-0.25265702 17:3.0723956 18:1.5306345 19:1.7484625 20:1.5026219 21:-1.0880149 22:-1.5166408 23:2.6406891 24:0.96664828 25:1.4256808 26:1.4383914 27:1.6134273 28:1.4297777 29:1.5448882 30:-1.4340861 31:0.29094597 32:-0.38570745 33:3.5354483 34:-1.8993097 35:1.7319161 36:-1.9008435 37:-0.496263 38:1.900077 39:3.0134092 40:-0.023450141 41:2.6457243 42:1.5321601 43:2.0310609 44:1.5073022 45:0.78167233 46:-1.5197477 47:2.1555762 48:0.7315342 49:2.8448084 50:1.6413969 51:1.7062296 52:1.6238281 53:-0.96636511 54:-1.6326251 55:3.1672111 56:1.0014355 57:2.9412125 58:1.5245907 59:1.7128619 60:1.502427 61:-1.055484 62:-1.5135196 63:3.2586192 64:0.19221505 
0.1230666664246288 0.01081131405777059 0 1:1.2730723 2:1.5369265 3:1.1164196 4:1.389279 5:-0.29573098 6:1.4685548 7:1.3464218 8:-0.54907311 9:1.1588411 10:-0.7213561 11:1.7080847 12:-0.7214904 13:-1.4922408 14:-0.72142678 15:0.75061126 16:-0.91476726 17:0.97853798 18:1.4368523 19:1.1710853 20:1.4148258 21:0.37641198 22:-1.4258827 23:1.1566545 24:-0.035496618 25:0.92805913 26:1.3747351 27:0.96685162 28:1.3674533 29:-0.83229301 30:-1.371098 31:0.99382264 32:0.32610743 33:1.9035979 34:-1.3082641 35:0.65965404 36:-1.3083962 37:-0.70992683 38:1.3083306 39:1.9721915 40:0.35127094 41:0.55975858 42:1.4394902 43:-0.71660227 44:1.420009 45:-0.98748609 46:-1.4297912 47:0.86295805 48:1.0633899 49:1.4617833 50:1.5245738 51:1.1867364 52:1.5117252 53:-1.2176018 54:-1.5181771 55:1.6445509 56:1.5199974 57:1.4505679 58:1.4350056 59:0.99192165 60:1.4174906 61:-1.1362396 62:-1.4262783 63:1.6507883 64:1.0796381 
0.1108833052466743 0.04554447458342643 0.1333473337147767 1:0.96155641 2:1.4658989 3:0.72160954 4:1.3446247 5:-0.50914091 6:1.4114474 7:0.82026717 8:-0.70104638 9:1.4705747 10:-0.6617624 11:1.4194566 12:-0.66116672 13:-0.77913816 14:-0.66146851 15:1.6334554 16:-0.7104544 17:0.49141287 18:1.4119121 19:0.88649636 20:1.3914158 21:-0.8893752 22:-1.4017148 23:0.46885654 24:1.1288352 25:2.7594658 26:1.3635339 27:1.6761671 28:1.3564811 29:2.3379032 30:-1.3600117 31:1.7517045 32:-0.78121491 33:0.071210413 34:-1.2376262 35:0.40164993 36:-1.2376297 37:-0.17063228 38:1.2376285 39:0.11590557 40:0.065645701 41:0.63951907 42:1.4169762 43:0.60964049 44:1.3987533 45:2.7177671 46:-1.4079117 47:0.52787889 48:-0.25190207 49:0.94919559 50:1.4981327 51:1.156226 52:1.4863025 53:1.9728067 54:-1.4922481 55:0.67777083 56:0.93458643 57:0.88236834 58:1.4145236 59:1.5550647 60:1.3980337 61:2.0441777 62:-1.4063128 63:0.59453206 64:0.40763963 
0.1642613077102016 0 0 1:0.088742356 2:1.3279345 3:0.87898102 4:1.2555001 5:-0.74115843 6:1.2990061 7:-0.029789447 8:-0.56257888 9:0.99756119 10:-0.75280624 11:0.43345755 12:-0.75334888 13:-0.33724435 14:-0.7530808 15:1.4480052 16:-0.78067059 17:-0.19221075 18:1.3847826 19:0.13742276 20:1.3659235 21:0.7543386 22:-1.3754114 23:-0.50946564 24:0.96254224 25:0.44078557 26:1.349634 27:1.2879608 28:1.3428622 29:-0.86198817 30:-1.3462527 31:0.17115965 32:-0.43956571 33:-0.37270016 34:-1.1043028 35:1.0903284 36:-1.1040884 37:0.23549657 38:1.104196 39:-0.71246849 40:-0.061184596 41:1.4896294 42:1.3975663 43:1.0414608 44:1.3804123 45:-0.94542443 46:-1.3890406 47:1.0873101 48:-0.41231777 49:0.21997318 50:1.4726672 51:0.43300952 52:1.4618002 53:0.41138732 54:-1.4672668 55:-0.46225 56:0.10241615 57:0.18701308 58:1.3950953 59:0.36794515 60:1.3795647 61:0.32676301 62:-1.3873677 63:-0.48352852 64:-0.57217043 
0.1642613077102016 0 0 1:0.27002166 2:1.3245308 3:0.475272 4:1.2530364 5:-0.37080547 6:1.2960658 7:0.5038582 8:0.076229729 9:0.63495074 10:-0.74786583 11:0.93566544 12:-0.74835188 13:-1.030646 14:-0.74811211 15:0.42801498 16:-0.4938454 17:0.83218838 18:1.3626669 19:0.76944126 20:1.3451214 21:-0.19390719 22:-1.3539582 23:1.2067197 24:-0.77759495 25:0.48187388 26:1.3380124 27:0.91952508 28:1.3314735 29:-1.9443948 30:-1.3347478 31:0.1792499 32:-0.71385544 33:1.2407024 34:-1.0182924 35:0.90708249 36:-1.0179536 37:-1.3095386 38:1.0181234 39:1.492058 40:-0.14593008 41:0.29753735 42:1.3819309 43:0.22777671 44:1.3656275 45:-1.6692877 46:-1.3738339 47:0.19620024 48:-0.33783955 49:0.48501764 50:1.4527 51:0.50622864 52:1.4425755 53:-1.2031171 54:-1.4476728 55:0.31661973 56:0.10021761 57:0.43870703 58:1.3799283 59:0.46851505 60:1.3651373 61:-1.1659739 62:-1.3725732 63:0.31094803 64:-0.48453188 
0.1642613077102016 0 0 1:0.14783475 2:1.4100849 3:0.75476291 4:1.3089539 5:0.10326934 6:1.3662017 7:-0.10181748 8:-0.70233317 9:0.37890051 10:-0.7540704 11:1.0432765 12:-0.75462874 13:0.26116296 14:-0.7543528 15:-0.53239342 16:-0.81483856 17:1.4691799 18:1.346187 19:2.0925208 20:1.3296061 21:0.18836433 22:-1.3379647 23:1.1689782 24:-0.64220452 25:0.34324546 26:1.3262147 27:1.029524 28:1.3199098 29:0.58600353 30:-1.3230675 31:-0.2023083 32:0.50729655 33:1.0937842 34:-1.043907 35:1.8363099 36:-1.0436075 37:1.3324992 38:1.0437577 39:0.86968537 40:0.86774154 41:1.1371728 42:1.3612355 43:1.9510734 44:1.3460435 45:1.1262116 46:-1.3536985 47:1.2691561 48:0.24175518 49:1.0126051 50:1.4258417 51:1.7660208 52:1.4166992 53:0.80409362 54:-1.4213079 55:0.42925371 56:0.16140562 57:1.0292632 58:1.3593216 59:2.2454205 60:1.3455231 61:0.64076994 62:-1.3524662 63:0.47653412 64:-0.40187662 
0.1642613077102016 0.1642613077102016 0.1642613077102016 1:1.549129 2:1.3635211 3:1.5777118 4:1.2787711 5:-1.1789027 6:1.3281867 7:1.4775255 8:-0.54496209 9:1.3897331 10:-0.82694092 11:2.2040565 12:-0.82847708 13:-0.86603111 14:-0.82771144 15:0.7339546 16:-1.199963 17:4.4391118 18:1.3243024 19:2.5586701 20:1.3089824 21:2.8766231 22:-1.3167156 23:3.8409141 24:2.0780166 25:0.15481744 26:1.2976328 27:0.40670939 28:1.2918875 29:-0.66835968 30:-1.2947662 31:0.37249111 32:0.88686455 33:2.425378 34:-0.99226903 35:0.9220218 36:-0.99189585 37:2.5872424 38:0.99208287 39:2.2522978 40:0.085688654 41:0.83089383 42:1.3373669 43:-0.11900013 44:1.3234368 45:0.5302604 46:-1.3304655 47:0.90346641 48:0.48953017 49:1.0989478 50:1.3972504 51:1.2909733 52:1.3891316 53:0.88278284 54:-1.3932308 55:0.63037853 56:0.78810541 57:1.0218232 58:1.3375578 59:1.1060617 60:1.3247914 61:0.98091615 62:-1.3312219 63:0.58520464 64:0.28567167 
0.1642613077102016 0.1642613077102016 0.1642613077102016 1:1.3121551 2:1.2139696 3:2.2246174 4:1.1782214 5:-0.79956063 6:1.2038475 7:1.0427659 8:1.7437046 9:2.4769512 10:-0.95829576 11:1.9452541 12:-0.96190382 13:-0.64887507 14:-0.96009969 15:2.4128817 16:1.8121155 17:0.98158273 18:1.3073009 19:1.9543901 20:1.2929519 21:-0.32981845 22:-1.3002034 23:0.85919292 24:-0.49752668 25:1.1087246 26:1.2827716 27:0.91322575 28:1.2773134 29:-0.56079862 30:-1.280049 31:1.1685369 32:-0.25545832 33:0.86270643 34:-0.9758408 35:2.3685357 36:-0.97546037 37:-1.0441331 38:0.975651 39:0.93803936 40:2.9324453 41:1.0096854 42:1.3160938 43:2.1152565 44:1.3032705 45:-1.8395373 46:-1.3097497 47:1.1985691 48:0.094438208 49:2.1235517 50:1.3694708 51:2.568535 52:1.3623262 53:-0.51818179 54:-1.3659405 55:1.6579048 56:0.1774911 57:2.0643928 58:1.3158793 59:2.20932 60:1.3041255 61:-0.49562283 62:-1.310053 63:1.6375114 64:-0.5814272 
0.1642613077102016 0.03186929594993192 0 1:0.36825471 2:1.0934248 3:0.85887966 4:1.0967699 5:2.4268849 6:1.1033725 7:0.16693316 8:-1.1517499 9:1.7900439 10:-0.93409312 11:2.6306997 12:-0.9372084 13:1.9725856 14:-0.93565155 15:1.5732878 16:-0.64479771 17:1.0959334 18:1.2887713 19:1.5253552 20:1.2754622 21:1.7113865 22:-1.2821976 23:1.018745 24:1.328794 25:1.663553 26:1.2665628 27:1.6881416 28:1.2614134 29:-0.35029138 30:-1.2639949 31:0.38735793 32:-0.041543013 33:0.7029999 34:-0.91432381 35:1.9479428 36:-0.91385027 37:-0.041423756 38:0.91408744 39:0.71928093 40:-0.70197872 41:1.5276824 42:1.292535 43:1.8011052 44:1.2809174 45:0.92673309 46:-1.2867977 47:1.3200707 48:-0.44316581 49:0.79716105 50:1.3469185 51:0.98209278 52:1.3405491 53:-0.53072936 54:-1.3437773 55:0.51374819 56:0.31102424 57:0.69759448 58:1.297788 59:1.0799507 60:1.2868666 61:-0.45188275 62:-1.2923804 63:0.49631528 64:-0.33907596 
0.1642613077102016 0.01807061235742484 0 1:0.097064734 2:1.1222625 3:-0.24209713 4:1.1166994 5:0.55936596 6:1.1276822 7:-0.051081614 8:-0.54007874 9:1.8431866 10:-0.74876839 11:1.354169 12:-0.74928703 13:0.76026781 14:-0.7490309 15:1.0558331 16:0.10116117 17:1.1301579 18:1.2605136 19:1.6405259 20:1.2487664 21:2.4167979 22:-1.2547264 23:0.80663661 24:0.60744113 25:1.1965162 26:1.2371989 27:2.0165236 28:1.2325996 29:-1.2518048 30:-1.2349068 31:0.62641333 32:0.27342184 33:-0.22371221 34:-0.81811563 35:0.4555911 36:-0.81753844 37:0.028531243 38:0.8178274 39:-0.32516179 40:0.32714779 41:-0.16448719 42:1.2711446 43:0.90377512 44:1.2606029 45:-1.6009842 46:-1.2659487 47:-0.22572242 48:-0.042598162 49:0.3947155 50:1.3252983 51:0.73650715 52:1.3196596 53:-2.0303057 54:-1.3225239 55:0.053738284 56:-0.12534027 57:0.31131319 58:1.2805403 59:0.68506823 60:1.2704023 61:-2.0104993 62:-1.2755267 63:-0.0011234032 64:-0.65258608 
0.1642613077102016 0.1642613077102016 0.1642613077102016 1:0.52179243 2:0.97367329 3:0.44085399 4:1.0093999 5:0.61294327 6:0.99966207 7:0.65736565 8:2.532995 9:1.8181993 10:-0.70701122 11:1.49407 12:-0.70716813 13:0.89658515 14:-0.70709266 15:1.9706308 16:2.7989213 17:-0.28808292 18:1.1992423 19:0.27537082 20:1.1907645 21:-0.11406813 22:-1.1951002 23:-0.18383246 24:2.160698 25:1.2588658 26:1.1742605 27:0.90151661 28:1.1707989 29:0.33256752 30:-1.1725385 31:1.2390735 32:0.46740017 33:1.2566953 34:-0.35482381 35:0.16758276 36:-0.35395687 37:-1.9512994 38:0.35439049 39:1.2122677 40:0.98102017 41:2.4311574 42:1.1983262 43:1.4809453 44:1.1913147 45:-0.59654485 46:-1.1949054 47:2.3264966 48:2.6144593 49:1.676778 50:1.2347031 51:1.0508981 52:1.2319842 53:-0.85275206 54:-1.2333933 55:1.4962497 56:3.0889508 57:1.6553738 58:1.2084791 59:1.0587197 60:1.2015011 61:-0.77239525 62:-1.2050538 63:1.5286322 64:2.610434 
0.1642613077102016 0.1642613077102016 0 1:0.86654593 2:1.0816424 3:1.1223646 4:1.0883239 5:0.82426146 6:1.0932561 7:0.57529249 8:-0.36186328 9:2.1711859 10:-0.48327909 11:1.6474152 12:-0.48077883 13:0.88113902 14:-0.48203339 15:1.8705404 16:0.41565802 17:0.062082674 18:1.1774548 19:1.1160633 20:1.1701055 21:0.36532055 22:-1.1738802 23:-0.028444927 24:-0.47231321 25:1.1590452 26:1.1675381 27:0.7482817 28:1.1641946 29:1.9849175 30:-1.1658753 31:1.3079781 32:0.62613106 33:1.0481117 34:-0.38098867 35:0.27884723 36:-0.38012764 37:1.7852189 38:0.38055832 39:0.94754688 40:0.78752731 41:1.9484101 42:1.1792815 43:1.0033637 44:1.1731617 45:1.8194959 46:-1.1763087 47:1.9737683 48:0.85820884 49:1.5411613 50:1.2076416 51:0.50184162 52:1.2057551 53:2.0754526 54:-1.2067491 55:1.7833306 56:0.43513602 57:1.4927098 58:1.1872518 59:0.82228299 60:1.1811728 61:2.2828 62:-1.1842782 63:1.756871 64:0.05208704 
0.1642613077102016 0 0 1:0.66170818 2:0.95949785 3:0.66972317 4:1.0013481 5:-0.014194537 6:0.9887414 7:0.48789335 8:-0.65765823 9:1.0561005 10:-0.43596623 11:1.527902 12:-0.43296657 13:0.28619526 14:-0.43447094 15:0.73466956 16:-1.051373 17:-0.70523329 18:1.1625841 19:0.52044752 20:1.1559916 21:1.7531381 22:-1.1593899 23:-0.83164876 24:-0.30895905 25:0.64092822 26:1.1574588 27:1.5226156 28:1.154292 29:-0.67153354 30:-1.1558845 31:0.64141509 32:-0.9299146 33:-0.25179557 34:-0.28517008 35:-0.024356986 36:-0.28429082 37:1.4605551 38:0.28473057 39:-0.29763645 40:0.96057708 41:0.11153872 42:1.1619745 43:-0.069572188 44:1.1566526 45:-0.45602464 46:-1.1594025 47:0.22677237 48:-0.82489331 49:0.67880852 50:1.1844764 51:0.72830975 52:1.1832852 53:1.4180757 54:-1.1839323 55:0.48114659 56:-1.1136916 57:0.59800856 58:1.1682222 59:0.72578213 60:1.162935 61:1.3316235 62:-1.1656462 63:0.40222684 64:-1.5291849 
0.1642613077102016 0.1138845846150163 0 1:-0.0030888348 2:0.94218638 3:-0.045272387 4:0.98855067 5:0.017792684 6:0.97364749 7:-0.40696838 8:-0.062465456 9:0.61137564 10:-0.40938033 11:-0.74677403 12:-0.40613665 13:-0.12917469 14:-0.407763 15:0.43169419 16:-1.1694016 17:0.3602259 18:1.1387827 19:0.64223625 20:1.13338 21:-0.43227318 22:-1.1361863 23:0.38284462 24:1.888344 25:0.39541347 26:1.1345803 27:0.22891298 28:1.1318068 29:0.35202225 30:-1.1332031 31:0.009490274 32:0.97087956 33:-0.08527333 34:-0.21582406 35:0.74616927 36:-0.21493471 37:-0.34319335 38:0.21537947 39:-0.0049562632 40:-0.93406554 41:0.98337727 42:1.1424364 43:-0.14627411 44:1.1379989 45:-0.058274665 46:-1.1403085 47:0.77206233 48:1.499949 49:0.78620216 50:1.1673983 51:0.46768112 52:1.1667065 53:-0.40809309 54:-1.1671044 55:0.40059083 56:2.8701221 57:0.75020086 58:1.153372 59:0.30962048 60:1.1486914 61:-0.43257553 62:-1.1511006 63:0.36322933 64:2.4973232 
0.1642613077102016 0 0 1:0.016324043 2:1.0563343 3:0.56605649 4:1.0705805 5:-1.4052725 6:1.071768 7:0.022972038 8:-0.53667594 9:0.89902919 10:-0.36960741 11:1.2260129 12:-0.36601303 13:-1.0848201 14:-0.36781465 15:0.79315825 16:-1.4855526 17:0.46564684 18:1.1106133 19:0.83669906 20:1.106593 21:-1.1145757 22:-1.1087113 23:0.36851796 24:0.1947013 25:1.5931709 26:1.1163263 27:0.67164159 28:1.113863 29:1.0305411 30:-1.1151044 31:1.858931 32:-1.3549048 33:0.09812675 34:-0.21849586 35:0.99621503 36:-0.2176062 37:0.72584386 38:0.21805111 39:-0.16425909 40:-1.0870239 41:0.0014842474 42:1.1227072 43:0.47601409 44:1.1191504 45:1.041019 46:-1.1210214 47:0.29047023 48:-0.036907118 49:1.0425379 50:1.1399521 51:1.2820274 52:1.1400538 53:0.12839015 54:-1.1400557 55:0.95155812 56:0.39165381 57:1.1667732 58:1.1313068 59:1.9070662 60:1.1275181 61:0.18937676 62:-1.1294831 63:1.0630606 64:0.24127616 
0.1642613077102016 0 0 1:0.28622691 2:1.0939251 3:0.72059396 4:1.0968391 5:-2.2822166 6:1.103627 7:0.19043837 8:-0.15049186 9:1.0211188 10:-0.44120907 11:0.87048217 12:-0.43831887 13:-1.2553118 14:-0.43976837 15:0.62071109 16:0.68057787 17:1.3362395 18:1.0878017 19:1.1031615 20:1.0848756 21:-0.91323417 22:-1.086449 23:1.3070455 24:-0.92678879 25:0.90753928 26:1.1009187 27:0.46449457 28:1.0987125 29:1.6339877 30:-1.0998256 31:0.71125045 32:-0.91085791 33:0.7064058 34:-0.26051608 35:1.3222941 36:-0.25962823 37:0.019276794 38:0.26007226 39:0.84134174 40:-0.98399278 41:0.45662304 42:1.0997403 43:0.11905551 44:1.097188 45:0.12075413 46:-1.0985586 47:0.8965643 48:0.49417804 49:0.85787048 50:1.114361 51:0.45726159 52:1.1151815 53:0.017890198 54:-1.1148245 55:0.62370854 56:0.8411443 57:0.83999436 58:1.1098629 59:0.33276595 60:1.1069232 61:0.071158674 62:-1.1084652 63:0.58626398 64:0.61561982 
0.1642613077102016 0.1642613077102016 0.1642613077102016 1:1.8952872 2:1.1578665 3:0.88409819 4:1.1399586 5:1.7623664 6:1.1568749 7:2.1434291 8:1.7378158 9:2.4249675 10:-0.49531048 11:2.0077581 12:-0.49297472 13:3.4201914 14:-0.49414691 15:2.5190267 16:1.2740494 17:2.1231165 18:1.0718239 19:1.0059702 20:1.0696484 21:2.6283597 22:-1.0708479 23:2.2408499 24:1.4023405 25:-0.1272401 26:1.083808 27:0.28098663 28:1.0818832 29:1.3746845 30:-1.0828558 31:-0.40430616 32:-0.24127231 33:0.56987614 34:-0.22475419 35:0.95764428 36:-0.22386685 37:3.3322181 38:0.2243106 39:0.751391 40:-0.17344428 41:0.16440302 42:1.0783401 43:-0.20088633 44:1.0767065 45:0.69990403 46:-1.0776192 47:0.41449862 48:-0.61936868 49:0.23501427 50:1.0898877 51:1.0349898 52:1.091379 53:2.246605 54:-1.0906869 55:0.14757947 56:0.91812101 57:0.2640261 58:1.0892927 59:0.81615611 60:1.0871526 61:2.1411018 62:-1.0882961 63:0.18099336 64:0.66008321 
0.1642613077102016 0 0 1:0.794369 2:1.3025668 3:1.2516977 4:1.238687 5:0.27262807 6:1.2780641 7:0.98087034 8:-0.27115924 9:1.004946 10:-0.32754184 11:1.4656479 12:-0.32366245 13:1.4766693 14:-0.32560633 15:1.2066994 16:0.52380331 17:0.020821588 18:1.0554553 19:1.3259003 20:1.0540423 21:0.40832427 22:-1.0548619 23:-0.19085516 24:-1.3036984 25:0.71989842 26:1.0777923 27:0.95754127 28:1.0759659 29:1.1569862 30:-1.0768894 31:0.54712533 32:-1.3804111 33:0.080838294 34:-0.22952391 35:1.6071635 36:-0.22863473 37:0.83278776 38:0.22907941 39:-0.010229511 40:-0.91768563 41:-0.35808493 42:1.0614987 43:-0.65217658 44:1.0605741 45:0.28656446 46:-1.0611334 47:-0.24223975 48:1.0813085 49:0.3534464 50:1.0675181 51:0.5932933 52:1.0696089 53:0.57861615 54:-1.0686173 55:0.0030161622 56:0.18225226 57:0.26694251 58:1.0702294 59:0.39589856 60:1.0688175 61:0.57258136 62:-1.0695979 63:-0.018258671 64:0.017737085 
0.1642613077102016 0 0 1:0.14806042 2:1.1635685 3:0.70299359 4:1.144911 5:-0.60374052 6:1.1622979 7:-0.17745235 8:0.15755115 9:0.46296308 10:-0.35843163 11:0.77652698 12:-0.35475148 13:-0.012719277 14:-0.35659594 15:0.26972502 16:-1.0073143 17:0.17988962 18:1.0444382 19:1.6774828 20:1.0435292 21:0.230333 22:-1.0440976 23:0.040664213 24:0.42569333 25:0.37128703 26:1.0718733 27:0.69763094 28:1.070142 29:-0.51895641 30:-1.071018 31:-0.022141705 32:0.93221264 33:-0.53145489 34:-0.19489749 35:0.53588905 36:-0.19401032 37:-0.92215757 38:0.19445398 39:-0.68151018 40:-0.24408611 41:-0.51108268 42:1.0441078 43:-0.27554525 44:1.043905 45:-0.25898326 46:-1.0441044 47:-0.85840225 48:0.85285496 49:0.052320293 50:1.0472034 51:0.64468914 52:1.0498258 53:-1.1844579 54:-1.0485685 55:-0.083746689 56:0.66147447 57:0.054020252 58:1.0519228 59:0.46062121 60:1.0511977 61:-1.2085739 62:-1.0516356 63:-0.052898224 64:0.49504912 
0.1224452312060047 0.1419367117720305 0.1642613077102016 1:0.31241438 2:1.4811611 3:2.4794481 4:1.4504927 5:1.1274502 6:1.4658553 7:0.94898747 8:0.085448186 9:1.0315734 10:1.5632385 11:2.88952 12:1.5310264 13:0.65253486 14:1.5470638 15:1.7137931 16:2.8171206 17:1.5247724 18:1.6832427 19:2.2553037 20:1.6482189 21:0.32633547 22:-1.6657365 23:1.1739647 24:1.4551087 25:2.0661587 26:1.7275797 27:2.8607651 28:1.6887797 29:0.022742107 30:-1.7081337 31:2.0294138 32:4.3076205 33:2.8715105 34:1.6767112 35:2.7237465 36:1.6340482 37:-2.0848645 38:-1.6553932 39:2.5805534 40:-0.19437377 41:1.3105324 42:1.6162871 43:2.3995905 44:1.5835903 45:0.022453208 46:-1.5999373 47:1.373561 48:0.51371638 49:-0.09491398 50:0.66404082 51:0 52:0.34517717 53:0.045043655 54:-0.5361642 55:0.19002734 56:0.30228571 57:-0.11511501 58:0.4981388 59:0 60:0.3343314 61:-0.055801857 62:-0.4371409 63:-0.26841208 64:-0.24422258 
0.1642613077102016 0.1642613077102016 0.1642613077102016 1:-0.054523877 2:1.4441751 3:0.33190727 4:1.4159972 5:0.134948 6:1.4301273 7:0.23987572 8:0.65035156 9:0.10863321 10:1.3870071 11:1.0577405 12:1.356511 13:-0.46931174 14:1.3716374 15:0.5616929 16:5.0397262 17:-0.11297905 18:1.6726323 19:-0.49830489 20:1.6383623 21:-0.60717015 22:-1.6555074 23:0.20121424 24:2.9617398 25:0.17287563 26:1.9379926 27:0.47073157 28:1.8824919 29:0.045048718 30:-1.9100655 31:0.76862754 32:5.1607878 33:-0.15220698 34:1.655525 35:1.6746826 36:1.614724 37:0.15840086 38:-1.6351521 39:-0.19071584 40:1.0016164 41:-0.18940631 42:1.5908541 43:0.5579396 44:1.5599012 45:0.74189748 46:-1.5753866 47:-0.025351476 48:0.88253109 49:-0.076167735 50:-0.081625832 51:0 52:0.076587485 53:0.28138519 54:0.0026736615 55:0.25170919 56:0.01234864 57:-0.11511501 58:0.4981388 59:0 60:0.3343314 61:-0.055801857 62:-0.4371409 63:-0.26841208 64:-0.24422258 
0.1509482024767974 0 0 1:-0.24607146 2:1.4623779 3:-1.1618849 4:1.433082 5:-1.6249504 6:1.4477668 7:-0.56030835 8:-0.42992712 9:-0.27007738 10:1.1934437 11:-0.34082065 12:1.1826664 13:-1.7459253 14:1.1881103 15:-0.48397391 16:-0.61152055 17:-0.29038342 18:1.4768721 19:-0.058347027 20:1.456196 21:-0.82416514 22:-1.4666207 23:-0.41626061 24:-0.48134591 25:-0.29136617 26:1.4570097 27:-0.61376336 28:1.4377637 29:-0.65906915 30:-1.4474703 31:-0.29631318 32:-0.2662706 33:0.14516881 34:1.4666354 35:0.82322663 36:1.4414636 37:-0.72061582 38:-1.4541806 39:0.20193043 40:0.64422079 41:0.01858372 42:1.4260499 43:-0.69695996 44:1.4057667 45:-0.28145806 46:-1.4159727 47:0.084669744 48:0.25367875 49:-0.12917346 50:0.3901828 51:0 52:0.25497114 53:0.17399328 54:-0.34666143 55:-0.23064223 56:-0.19399806 57:-0.11511501 58:0.4981388 59:0 60:0.3343314 61:-0.055801857 62:-0.4371409 63:-0.26841208 64:-0.24422258 
0.06145890804123584 0 0 1:-0.1822383 2:1.4048744 3:-0.38717384 4:1.3794827 5:-1.78484 6:1.3922359 7:-0.19562067 8:-0.11110599 9:-0.17642612 10:1.0411674 11:-0.75732014 12:1.0361644 13:-1.9966764 14:1.038731 15:-0.13269109 16:-0.33410782 17:-0.27227255 18:1.4231032 19:-0.49758548 20:1.4058558 21:-0.061247302 22:-1.4145817 23:-0.20509946 24:-0.73394687 25:-0.31614641 26:1.3969727 27:-0.63857837 28:1.3813371 29:-1.466174 30:-1.3892536 31:-0.41945022 32:-0.41251932 33:0.15131922 34:1.4111534 35:0.70856515 36:1.3902251 37:1.2313381 38:-1.4008433 39:0.42663125 40:0.091635684 41:-0.049105995 42:1.3770389 43:-1.0368269 44:1.3597142 45:0.95731177 46:-1.3684539 47:0.15155402 48:-0.46714687 49:-0.13463995 50:0.75574168 51:0 52:0.38573843 53:-0.12344897 54:-0.60996635 55:-0.34765264 56:-0.32732318 57:-0.11511501 58:0.4981388 59:0 60:0.3343314 61:-0.055801857 62:-0.4371409 63:-0.26841208 64:-0.24422258 
0.1642613077102016 0 0 1:-0.22699229 2:1.3157006 3:-1.4207282 4:1.2961915 5:-0.72994616 6:1.3060321 7:-0.41331899 8:-0.83402306 9:-0.26333066 10:0.97679566 11:-0.757464 12:0.97414615 13:-0.18690606 14:0.9755393 15:-0.42695405 16:-0.6368535 17:-0.34031074 18:1.4183507 19:-0.89044967 20:1.4013995 21:-1.9597316 22:-1.4099786 23:-0.41666886 24:-0.56896938 25:-0.34412474 26:1.3839545 27:-0.86938707 28:1.3690805 29:0.65124377 30:-1.3766192 31:-0.51481364 32:-0.37941403 33:-0.84909386 34:1.3988942 35:-0.87217197 36:1.3788835 37:-0.2178906 38:-1.3890476 39:-1.1123259 40:-0.5944939 41:-1.1979399 42:1.3685637 43:-2.02371 44:1.3517413 45:0.82580485 46:-1.3602319 47:-1.9160063 48:-1.0463446 49:-0.13311027 50:0.57444623 51:0 52:0.32142263 53:-0.19507991 54:-0.47992261 55:-0.30751007 56:-0.21856949 57:-0.11511501 58:0.4981388 59:0 60:0.3343314 61:-0.055801857 62:-0.4371409 63:-0.26841208 64:-0.24422258 
0.1642613077102016 0 0 1:-0.2257297 2:1.3056559 3:-0.58206225 4:1.2867487 5:0.25243024 6:1.2962905 7:-0.40834455 8:-0.38603534 9:-0.25630198 10:0.979339 11:-0.37162399 12:0.97656959 13:0.29698963 14:0.97802232 15:-0.40869033 16:-0.49469396 17:-0.25621849 18:1.3900923 19:-0.89888995 20:1.3748869 21:-0.32811511 22:-1.3826003 23:-0.17397891 24:-1.0066386 25:-0.30796915 26:1.3654314 27:-0.55146862 28:1.3516297 29:1.1354449 30:-1.3586362 31:-0.3662411 32:-0.38130482 33:-0.49732147 34:1.3679302 35:-0.31542983 36:1.3501975 37:-1.8296529 38:-1.3592336 39:-0.51279874 40:-0.66572804 41:-0.2419093 42:1.3412303 43:-0.94321395 44:1.3260027 45:-0.95882034 46:-1.3337022 47:-0.33770896 48:-0.48809765 49:-0.13483054 50:0.56106068 51:0 52:0.31694837 53:0.10195124 54:-0.47059756 55:-0.35439105 56:-0.29490539 57:-0.11511501 58:0.4981388 59:0 60:0.3343314 61:-0.055801857 62:-0.4371409 63:-0.26841208 64:-0.24422258 
0.1642613077102016 0 0 1:-0.23948634 2:1.2824487 3:-0.067316325 4:1.264998 5:-0.09968742 6:1.2738178 7:-0.51434315 8:-0.47758879 9:-0.30151242 10:0.96387177 11:0.25453259 12:0.96162738 13:-0.24795827 14:0.96281802 15:-0.64654335 16:-0.4844134 17:-0.36350701 18:1.3657208 19:-0.68784592 20:1.3519849 21:0.21557284 22:-1.3589692 23:-0.49722153 24:0.20997441 25:-0.32792839 26:1.3426337 27:-0.72136396 28:1.3301306 29:-0.37138954 30:-1.3364924 31:-0.44756314 32:-0.32811009 33:-0.65199591 34:1.3434352 35:0.038355201 36:1.3274645 37:1.3894504 38:-1.3356275 39:-0.84242133 40:0.78990514 41:-0.83448144 42:1.3221471 43:-0.3603812 44:1.3080139 45:0.89668049 46:-1.3151704 47:-1.1086237 48:0.046676082 49:-0.13270843 50:0.40270637 51:0 52:0.26000538 53:-0.10738418 54:-0.35623693 55:-0.28958149 56:-0.31227338 57:-0.11511501 58:0.4981388 59:0 60:0.3343314 61:-0.055801857 62:-0.4371409 63:-0.26841208 64:-0.24422258 
0.1642613077102016 0 0 1:-0.2028237 2:1.2810279 3:-0.53304393 4:1.2636466 5:1.5669014 6:1.2724317 7:-0.3011192 8:-0.27703339 9:-0.24296304 10:1.0042292 11:0.037313881 12:1.0005979 13:0.9792891 14:1.0024808 15:-0.35725334 16:-0.50396906 17:-0.16175258 18:1.3374883 19:0.37761766 20:1.3254326 21:1.810091 22:-1.331583 23:-0.029031709 24:-0.23635545 25:-0.33174404 26:1.317021 27:-0.65077782 28:1.3059519 29:0.12056066 30:-1.3116015 31:-0.46846239 32:-0.32826136 33:-0.1053495 34:1.318714 35:0.52926392 36:1.3044963 37:0.18604484 38:-1.3117902 39:0.11696306 40:0.23969912 41:-0.0067504199 42:1.2992305 43:-0.25039894 44:1.2863934 45:0.54351548 46:-1.2929065 47:0.2363316 48:-0.10718876 49:-0.13490607 50:0.2909758 51:0 52:0.21910695 53:0.10789952 54:-0.27482628 55:-0.35795786 56:-0.27481016 57:-0.11511501 58:0.4981388 59:0 60:0.3343314 61:-0.055801857 62:-0.4371409 63:-0.26841208 64:-0.24422258 
0.1642613077102016 0 0 1:-0.18090424 2:1.251886 3:-0.89873077 4:1.2363128 5:0.51479767 6:1.2442013 7:-0.2177169 8:-0.54893861 9:-0.22666978 10:1.0083405 11:-0.14019451 12:1.0045794 13:0.018377245 14:1.0065272 15:-0.28373391 16:-0.56310669 17:-0.33253969 18:1.3064116 19:-0.94859369 20:1.296163 21:0.33034968 22:-1.301416 23:-0.3847889 24:-0.68285314 25:-0.26906509 26:1.291893 27:-0.47713339 28:1.2822042 29:-0.097632498 30:-1.287168 31:-0.21935864 32:-0.35002219 33:-0.20454277 34:1.2921839 35:0.33948112 36:1.2798128 37:0.99624305 38:-1.2861909 39:-0.1521394 40:-0.9794312 41:0.20004014 42:1.2724075 43:0.018736953 44:1.2610605 45:-0.38105552 46:-1.2668337 47:0.49781202 48:-0.60765222 49:0.12940866 50:0.14639352 51:0 52:0.16076973 53:0.15094138 54:-0.16423965 55:0.88497552 56:0.13178084 57:-0.11511501 58:0.4981388 59:0 60:0.3343314 61:-0.055801857 62:-0.4371409 63:-0.26841208 64:-0.24422258 
0.1642613077102016 0.02710327106999866 0 1:-0.21105374 2:1.2862282 3:0.099516977 4:1.2685728 5:0.022281196 6:1.2774945 7:-0.34413688 8:-0.94092754 9:-0.21939442 10:1.0781839 11:0.66488885 12:1.0719065 13:0.32581985 14:1.0751092 15:-0.27601337 16:-0.64171904 17:-0.3963984 18:1.2821463 19:-0.99097777 20:1.2732763 21:0.64363393 22:-1.2778444 23:-0.56448437 24:-0.53553872 25:-0.33376007 26:1.2611292 27:-0.83447416 28:1.2530877 29:0.38147105 30:-1.2572324 31:-0.46606169 32:-0.17451609 33:-0.25567765 34:1.2759732 35:0.05407523 36:1.2647058 37:-0.67357811 38:-1.2705361 39:-0.1026494 40:0.54722128 41:-0.28568578 42:1.2551646 43:0.0034144109 44:1.2447505 45:-0.54643721 46:-1.2500602 47:-0.1913289 48:1.7118001 49:-0.133532 50:-0.48461449 51:0 52:-0.08570955 53:-0.29553122 54:0.31057844 55:-0.31265643 56:0.20830088 57:-0.11511501 58:0.4981388 59:0 60:0.3343314 61:-0.055801857 62:-0.4371409 63:-0.26841208 64:-0.24422258 
0.1642613077102016 0 0 1:-0.22270066 2:1.3063699 3:-0.38263784 4:1.2874463 5:-1.0167997 6:1.2969966 7:-0.40447663 8:-0.76557329 9:-0.23079092 10:1.1183381 11:0.10409228 12:1.1105342 13:-1.6324057 14:1.1144975 15:-0.32463117 16:-0.61374212 17:-0.42439229 18:1.2531766 19:-1.4620085 20:1.2459197 21:0.62808163 22:-1.249686 23:-0.68346881 24:-0.75579999 25:-0.27872024 26:1.2260088 27:-0.43583759 28:1.2198115 29:-0.33296348 30:-1.223039 31:-0.24085306 32:-0.40169235 33:0.17543904 34:1.2466998 35:0.26646734 36:1.2374007 37:1.5147597 38:-1.2422537 39:0.43921481 40:-0.16883716 41:0.32368111 42:1.2174603 43:-0.19517306 44:1.2090683 45:0.71909442 46:-1.2133731 47:0.53568556 48:-0.41611725 49:-0.13053396 50:0.30507562 51:0 52:0.22428252 53:0.031271571 54:-0.28511407 55:-0.25760964 56:-0.2743372 57:-0.11511501 58:0.4981388 59:0 60:0.3343314 61:-0.055801857 62:-0.4371409 63:-0.26841208 64:-0.24422258 
0.1642613077102016 0 0 1:-0.19046177 2:1.2814273 3:-0.66080185 4:1.2640461 5:-0.11952337 6:1.2728315 7:-0.22108772 8:-0.55617117 9:-0.23184554 10:1.1072714 11:-0.9272417 12:1.0998213 13:-0.13637009 14:1.1036078 15:-0.30520786 16:-0.36168166 17:-0.24499411 18:1.1584086 19:-0.85188079 20:1.1561612 21:-0.60652323 22:-1.1574343 23:-0.13098384 24:-0.52506349 25:-0.30380246 26:1.1485317 27:-0.52970112 28:1.1462011 29:0.11333729 30:-1.1475032 31:-0.35537738 32:-0.37105517 33:-0.80411216 34:1.1670171 35:-0.03693794 36:1.1628391 37:-1.0242551 38:-1.1651463 39:-1.0485668 40:-0.41129711 41:-0.52093252 42:1.1533142 43:-0.95946613 44:1.1482107 45:-0.39055337 46:-1.1508796 47:-0.53720596 48:-0.076396918 49:-0.13440086 50:0.22305658 51:0 52:0.19398599 53:0.040576602 54:-0.22508085 55:-0.34052145 56:-0.25622476 57:-0.11511501 58:0.4981388 59:0 60:0.3343314 61:-0.055801857 62:-0.4371409 63:-0.26841208 64:-0.24422258 
0.1642613077102016 0.1642613077102016 0 1:-0.20007589 2:1.2095046 3:-0.29072731 4:1.196435 5:-0.98777778 6:1.2030805 7:-0.293805 8:-0.27601081 9:-0.20166661 10:1.0055861 11:-0.22804909 12:1.0019065 13:-1.1262686 14:1.0038134 15:-0.2420507 16:-0.50192116 17:-0.39594749 18:1.1471909 19:-0.91026951 20:1.1455115 21:-0.98138955 22:-1.1465016 23:-0.59332271 24:-1.0005695 25:-0.33145168 26:1.1252366 27:-0.69242505 28:1.1240187 29:-0.14984416 30:-1.1247662 31:-0.45038509 32:-0.39119842 33:-0.42930749 34:1.1483056 35:-0.095777139 36:1.145281 37:0.50325498 38:-1.1470141 39:-0.36876128 40:-0.44690854 41:-0.80442842 42:1.1311808 43:-1.0912372 44:1.1271723 45:0.50271367 46:-1.1292961 47:-0.95510539 48:-0.25270536 49:-0.13500978 50:0.073297053 51:0 52:0.13821311 53:-0.21005092 54:-0.11501635 55:-0.36337018 56:-0.30220681 57:-0.11511501 58:0.4981388 59:0 60:0.3343314 61:-0.055801857 62:-0.4371409 63:-0.26841208 64:-0.24422258 
0.1642613077102016 0.1642613077102016 0 1:-0.24348634 2:1.1827985 3:-1.499103 4:1.1713244 5:-0.14912687 6:1.177178 7:-0.52921145 8:-0.82819788 9:-0.27755279 10:1.0494989 11:-0.59917422 12:1.0442908 13:0.028940161 14:1.0469605 15:-0.50165307 16:-0.71683193 17:-0.29189591 18:1.1340324 19:-0.18270446 20:1.1330094 21:0.31464899 22:-1.1336723 23:-0.36314488 24:-0.83843115 25:-0.30857788 26:1.1067633 27:-0.74501278 28:1.10641 29:0.13962177 30:-1.1067264 31:-0.35460812 32:-0.34664153 33:-0.77268016 34:1.1312572 35:0.0012109298 36:1.129268 37:-0.4004656 38:-1.1304855 39:-0.90112447 40:-0.82458407 41:-0.26144447 42:1.11479 43:-1.1832496 44:1.1115784 45:-1.4288708 46:-1.1133053 47:-0.15211906 48:-0.14384949 49:-0.13304852 50:-0.022156088 51:0 52:0.10204524 53:-0.06765798 54:-0.044254703 55:-0.30532624 56:-0.29138418 57:-0.11511501 58:0.4981388 59:0 60:0.3343314 61:-0.055801857 62:-0.4371409 63:-0.26841208 64:-0.24422258 
0.1642613077102016 0.1642613077102016 0 1:-0.22811306 2:1.1325939 3:-0.45059872 4:1.1239583 5:-0.22935915 6:1.1284011 7:-0.42072123 8:-0.92517294 9:-0.26629683 10:1.0371386 11:-0.26587583 12:1.0323806 13:-0.3079315 14:1.0348258 15:-0.45839546 16:-0.73264181 17:-0.20462397 18:1.1167046 19:-0.48264147 20:1.1165322 21:-1.1013297 22:-1.1167711 23:-0.060014124 24:-0.26349705 25:-0.28492096 26:1.0819311 27:-0.41493688 28:1.0827189 29:-1.1376574 30:-1.0824661 31:-0.31604776 32:-0.39224524 33:0.46897546 34:1.1063984 35:0.69297413 36:1.1058881 37:0.75967626 38:-1.1063688 39:0.82989696 40:-0.16767824 41:0.073043147 42:1.090252 43:-0.38031187 44:1.0882137 45:0.40961609 46:-1.0893561 47:0.13050043 48:-0.65137209 49:-0.13371111 50:-0.14962841 51:0 52:0.053227854 53:-0.035153127 54:0.050748323 55:-0.31640565 56:-0.32539828 57:-0.11511501 58:0.4981388 59:0 60:0.3343314 61:-0.055801857 62:-0.4371409 63:-0.26841208 64:-0.24422258 
0.1642613077102016 0.1316166751083986 0 1:-0.223219 2:1.0905391 3:-0.35007629 4:1.0841623 5:1.3014643 6:1.087481 7:-0.40481252 8:-0.47724572 9:-0.25341544 10:1.0164085 11:0.12332724 12:1.0123564 13:0.77731946 14:1.0144493 15:-0.40055094 16:-0.5385389 17:-0.14905086 18:1.0933957 19:0.23934097 20:1.0943511 21:-0.77769193 22:-1.0940275 23:0.04632973 24:-0.60493465 25:-0.29881799 26:1.0574982 27:-0.62903992 28:1.0593806 29:-0.16425692 30:-1.0585814 31:-0.32248012 32:-0.33667211 33:-0.42846658 34:1.0882907 35:0.21785754 36:1.0888398 37:-0.43883229 38:-1.0887924 39:-0.53121194 40:-1.0734643 41:-0.40941313 42:1.0731235 43:-0.38421159 44:1.0718887 45:0.10767646 46:-1.0726305 47:-0.50363816 48:-0.94134936 49:-0.13494933 50:-0.085883237 51:0 52:0.077574811 53:-0.12498729 54:0.0033033531 55:-0.35814519 56:-0.2568515 57:-0.11511501 58:0.4981388 59:0 60:0.3343314 61:-0.055801857 62:-0.4371409 63:-0.26841208 64:-0.24422258 
0.1642613077102016 0.1590548585043948 0.06091133561951224 1:-0.0061026746 2:1.0751346 3:1.498212 4:1.0695661 5:1.6517197 6:1.0724824 7:0.27006814 8:-0.36422864 9:0.19186474 10:1.0118611 11:1.5370391 12:1.0070757 13:2.3539534 14:1.0095268 15:0.56868177 16:0.78667005 17:1.8295833 18:1.0721034 19:1.9360406 20:1.0740638 21:1.4748028 22:-1.0732387 23:2.3382511 24:-0.22783384 25:2.3612287 26:1.0710605 27:1.7690553 28:1.0721609 29:1.465544 30:-1.07175 31:2.85587 32:1.159102 33:1.2994609 34:1.0677943 35:2.1845087 36:1.0695151 37:-0.70529125 38:-1.0688833 39:1.4825308 40:0.42853852 41:0.72278 42:1.0546006 43:2.2579975 44:1.0542157 45:-0.4010554 46:-1.0545337 47:0.98516632 48:0.64991044 49:-0.13389966 50:-0.16466453 51:0 52:0.046838369 53:-0.18991346 54:0.06256283 55:-0.3267864 56:-0.18935016 57:-0.11511501 58:0.4981388 59:0 60:0.3343314 61:-0.055801857 62:-0.4371409 63:-0.26841208 64:-0.24422258 
0.1642613077102016 0.1642613077102016 0 1:-0.21046517 2:1.0470398 3:-0.060974645 4:1.0429446 5:1.1556816 6:1.0451274 7:-0.34299067 8:-0.45098727 9:-0.23613817 10:1.0653716 11:0.23416991 12:1.0571016 13:1.974782 14:1.0612761 15:-0.38544657 16:1.8602724 17:-0.021817931 18:1.0704829 19:0.67559204 20:1.072493 21:1.1570777 22:-1.0716428 23:0.27412158 24:1.9445649 25:1.522295 26:1.228356 27:0.44018244 28:1.2213287 29:1.3218366 30:-1.224961 31:2.2193511 32:2.8269358 33:0.75735817 34:1.057577 35:1.7445606 36:1.0598776 37:0.97583197 38:-1.0589566 39:0.98500393 40:-0.29283996 41:-0.23667468 42:1.0336981 43:0.79428474 44:1.0342625 45:-1.1938522 46:-1.0341071 47:-0.11340754 48:-0.28907726 49:-0.13243383 50:-0.32953365 51:0 52:-0.018767249 53:-0.23639818 54:0.18781227 55:-0.2835263 56:-0.069475243 57:-0.11511501 58:0.4981388 59:0 60:0.3343314 61:-0.055801857 62:-0.4371409 63:-0.26841208 64:-0.24422258 
0.1642613077102016 0.1642613077102016 0 1:-0.23285939 2:1.0740417 3:-0.97939346 4:1.0685692 5:-0.51068754 6:1.0714382 7:-0.44337755 8:-0.90505408 9:-0.29663312 10:0.91715646 11:-1.0902308 12:0.91649686 13:-0.46271222 14:0.91689636 15:-0.57832523 16:-0.62679865 17:-0.014171461 18:1.0225041 19:0.24613516 20:1.0267334 21:0.035235676 22:-1.0247754 23:0.36414285 24:-1.0262409 25:-0.35093996 26:1.033837 27:-0.49264719 28:1.0367529 29:-0.63217259 30:-1.0354376 31:-0.58895445 32:-0.23368072 33:-0.39378976 34:1.0397787 35:0.60834049 36:1.0430729 37:-0.38080361 38:-1.0416559 39:-0.33851298 40:-0.68446972 41:-0.58327659 42:1.0201371 43:-0.7057658 44:1.0213071 45:-1.6044064 46:-1.0208495 47:-0.68465982 48:-1.0474389 49:-0.13466698 50:-0.26907213 51:0 52:0.0065471272 53:-0.1896098 54:0.14067546 55:-0.34780933 56:-0.25397197 57:-0.11511501 58:0.4981388 59:0 60:0.3343314 61:-0.055801857 62:-0.4371409 63:-0.26841208 64:-0.24422258 
0.1642613077102016 0.1642613077102016 0 1:-0.21344783 2:1.0415934 3:-0.89399196 4:1.037812 5:0.50974748 6:1.0398389 7:-0.34619777 8:-0.97700148 9:-0.22997425 10:0.9600492 11:-0.23648326 12:0.9579897 13:0.50533284 14:0.95908848 15:-0.30547517 16:-0.78452737 17:-0.24066473 18:1.0130737 19:-0.39300203 20:1.0177177 21:0.038391506 22:-1.0155524 23:-0.19146874 24:-0.24123774 25:-0.32899362 26:1.0048194 27:-0.86010816 28:1.0089772 29:-0.3549355 30:-1.0070414 31:-0.43734211 32:-0.38469573 33:-0.38209621 34:1.0170547 35:0.37495491 36:1.0215907 37:1.0561949 38:-1.0195535 39:-0.36283825 40:-0.51440399 41:-0.44874423 42:1.0050561 43:-0.83045278 44:1.0068875 45:0.84808364 46:-1.0060998 47:-0.42576643 48:-0.53952192 49:-0.13244966 50:-0.29390323 51:0 52:-0.0039384927 53:-0.0024118119 54:0.16012008 55:-0.28753224 56:-0.14397322 57:-0.11511501 58:0.4981388 59:0 60:0.3343314 61:-0.055801857 62:-0.4371409 63:-0.26841208 64:-0.24422258 
0.1642613077102016 0.1642613077102016 0 1:-0.19982006 2:1.0811309 3:0.17399291 4:1.0752522 5:0.38157762 6:1.078323 7:-0.29890021 8:-0.44273468 9:-0.26386281 10:1.0122727 11:0.2499181 12:1.0083682 13:0.65148464 14:1.0103875 15:-0.44883124 16:-0.54347777 17:-0.21007387 18:0.97344175 19:0.27798282 20:0.97979774 21:0.8291454 22:-0.97677645 23:-0.15516301 24:-0.23260153 25:-0.27900529 26:0.97685125 27:-0.29322011 28:0.982166 29:1.1255011 30:-0.9796518 31:-0.25220085 32:-0.31452533 33:-0.6576017 34:0.98487261 35:0.1875291 36:0.99111736 37:0.42389264 38:-0.98822615 39:-0.71868616 40:0.33787147 41:-1.0015043 42:0.98084719 43:-0.95568729 44:0.98371956 45:-0.55152925 46:-0.98241206 47:-1.3893352 48:0.19780926 49:-0.11142943 50:-0.36493827 51:0 52:-0.031916397 53:0.042116141 54:0.21381014 55:-0.026457128 56:-0.15062752 57:-0.11511501 58:0.4981388 59:0 60:0.3343314 61:-0.055801857 62:-0.4371409 63:-0.26841208 64:-0.24422258 
0.1141777579568061 0.1642613077102016 0.1642613077102016 1:2.9192571 2:-0.93450408 3:2.255579 4:-0.95486983 5:-1.1945262 6:0.94601875 7:2.8398414 8:0.94313566 9:3.4165568 10:1.5001577 11:2.2557198 12:0.96136048 13:0.5167289 14:1.2871097 15:3.3597651 16:0.49869531 17:2.9877485 18:1.7010247 19:2.3800601 20:1.6841747 21:-2.2780091 22:-1.6925905 23:3.0327665 24:4.3365138 25:2.6548476 26:-0.28920361 27:2.1147018 28:-0.28770267 29:-1.5716296 30:0.28845309 31:2.797715 32:4.2114998 33:2.9024872 34:-2.2801584 35:2.4930673 36:-2.2826663 37:-2.8797271 38:2.281412 39:2.6768821 40:3.4784417 41:0.31883304 42:1.4355859 43:1.0796622 44:1.4335443 45:-1.4620621 46:-1.434565 47:0.7563231 48:0.095561639 49:3.061187 50:1.6469681 51:2.3287806 52:1.6285182 53:-2.3576764 54:-1.6377314 55:3.161584 56:4.2712344 57:2.7198069 58:1.8187411 59:1.6725948 60:1.7891148 61:-2.0978638 62:-1.8039065 63:2.8077037 64:4.1680369 
0 0 0.1642613077102016 1:-0.75621388 2:-1.033949 3:-0.98327585 4:-1.1050051 5:0.16439709 6:1.0691625 7:-0.71235112 8:-0.46744191 9:-0.82878444 10:1.4557464 11:-0.5050609 12:0.95591529 13:-0.27480704 14:1.2680352 15:-0.80866726 16:-0.75690825 17:-0.68788678 18:1.6567497 19:-0.71960378 20:1.6414137 21:0.31097188 22:-1.6490772 23:-0.56638729 24:-0.33120453 25:-0.61464689 26:-0.43633798 27:-0.26010517 28:-0.43379383 29:-0.52679313 30:0.43506603 31:-0.4102098 32:-0.25961026 33:-0.62142653 34:-2.2268699 35:-0.85219845 36:-2.2289783 37:0.45945268 38:2.227924 39:-0.62810114 40:0.11259444 41:-0.93886752 42:1.3837003 43:-1.5546547 44:1.3818778 45:-0.38621666 46:-1.3827889 47:-0.6826574 48:-0.25393566 49:-0.71646944 50:1.6141373 51:-0.70360384 52:1.5969222 53:0.54667177 54:-1.6055223 55:-0.69470067 56:-0.42706063 57:-0.72072714 58:1.7739628 59:-1.1238883 60:1.7467108 61:0.75486537 62:-1.760327 63:-0.59199884 64:-0.48725858 
0 0.1355684843039644 0.1642613077102016 1:-0.86475771 2:-1.0402646 3:-1.3582026 4:-1.1150227 5:-0.59207625 6:1.0771793 7:-0.81136587 8:-0.56801627 9:-0.95869046 10:1.4815933 11:-1.7007653 12:0.96141764 13:-0.24221989 14:1.2820958 15:-0.91627938 16:-0.77727852 17:-0.76948411 18:1.6456923 19:-1.2074029 20:1.63072 21:-1.0147133 22:-1.6382028 23:-0.6927072 24:-0.64793989 25:-0.74951704 26:-0.24636071 27:-1.3879627 28:-0.24414745 29:-1.138717 30:0.24525393 31:-0.81968832 32:-0.2800462 33:-0.68483198 34:-2.0715626 35:-1.4255 36:-2.0731075 37:-0.78235139 38:2.0723352 39:-0.66604039 40:-0.26328576 41:-0.89955363 42:1.4212694 43:-1.3571774 44:1.4192881 45:-0.88095648 46:-1.4202786 47:-0.47529854 48:0.15540317 49:-0.73122747 50:1.6024292 51:-0.94664838 52:1.5856271 53:-0.82843577 54:-1.594022 55:-0.63614374 56:-0.39303888 57:-0.67559344 58:1.7592725 59:-1.1326253 60:1.7327421 61:-1.1256433 62:-1.7460006 63:-0.37400647 64:-0.21391776 
0 0.08925378063366472 0.1642613077102016 1:-0.91271696 2:-1.034578 3:-1.3298664 4:-1.1060427 5:-0.1059286 6:1.0699768 7:-0.68081697 8:-0.40707395 9:-0.98464803 10:1.5176513 11:-1.1576659 12:0.96885486 13:-0.2261654 14:1.301404 15:-0.81154122 16:-0.58779242 17:-0.80119762 18:1.6082839 19:-0.72963126 20:1.5945196 21:-1.0629353 22:-1.6014017 23:-0.52371086 24:0.24820379 25:-0.75582505 26:-0.10747872 27:-0.72060567 28:-0.10556771 29:-1.0254298 30:0.1065229 31:-0.63726593 32:-0.68562061 33:-0.6901569 34:-1.8923242 35:-0.4838397 36:-1.8932896 37:-1.8261523 38:1.8928072 39:-0.4050679 40:-0.29335231 41:-0.88177252 42:1.4071381 43:-1.4376676 44:1.4052181 45:-1.411511 46:-1.406178 47:-0.68212785 48:-0.23793984 49:-0.60643859 50:1.5775346 51:-0.47532149 52:1.5615974 53:-2.3381217 54:-1.5695624 55:-0.2585807 56:0.42803379 57:-0.43409285 58:1.7157122 59:-0.48952927 60:1.6912833 61:-1.8227065 62:-1.7034999 63:0.18229036 64:0.51391109 
0 0 0.1642613077102016 1:-0.99603108 2:-1.0450442 3:-1.0878012 4:-1.1226525 5:-0.83267631 6:1.0832659 7:-0.86804245 8:-0.59676452 9:-1.0678678 10:1.5902696 11:-1.2255456 12:0.98393302 13:-0.84208416 14:1.3404169 15:-0.92765125 16:-0.7844125 17:-0.86008298 18:1.57991 19:-0.53285941 20:1.567045 21:-1.4354279 22:-1.5734799 23:-0.58390947 24:0.084896045 25:-0.81402532 26:0.053601819 27:-0.31892566 28:0.055068735 29:-1.0821992 30:-0.054335735 31:-0.5357959 32:-0.55621164 33:-0.75944475 34:-1.876969 35:-0.27940974 36:-1.8778856 37:-1.7259577 38:1.8774276 39:-0.45790116 40:-0.48179972 41:-0.86543731 42:1.3669979 43:-1.1296725 44:1.3652444 45:-1.3800899 46:-1.3661211 47:-0.48019009 48:-0.3783722 49:-0.72798153 50:1.5468462 51:-0.8308298 52:1.5319642 53:-1.7185613 54:-1.5394048 55:-0.43924929 56:-0.0070332815 57:-0.6978153 58:1.6817533 59:-0.66512133 60:1.6589422 61:-1.3582426 62:-1.6703565 63:-0.34956393 64:-0.28270592 
0.02988123224959245 0.03567852266059661 0.1642613077102016 1:-1.0029058 2:-1.0453222 3:-1.2397929 4:-1.1231018 5:0.36838927 6:1.0836221 7:-0.75317378 8:-0.5723649 9:-1.0754468 10:1.6484175 11:-1.5265218 12:0.99560466 13:0.45949572 14:1.3711324 15:-0.75636856 16:-0.7807221 17:-0.94842195 18:1.5287791 19:-1.4000418 20:1.5174932 21:0.39502845 22:-1.5231426 23:-0.74000398 24:-0.17660682 25:-0.89053252 26:0.10816102 27:-0.97476054 28:0.10946042 29:0.0247371 30:-0.10881121 31:-0.66843337 32:-0.57448297 33:-0.85418809 34:-1.9199267 35:-0.85371974 36:-1.9209782 37:0.5783293 38:1.9204527 39:-0.49105005 40:-0.20589582 41:-0.90766948 42:1.1807112 43:-1.3821517 44:1.17967 45:0.18437968 46:-1.1801908 47:-0.64370415 48:0.019202985 49:-0.77988023 50:1.4762227 51:-0.73491076 52:1.4636852 53:-0.048737012 54:-1.46996 55:-0.20960484 56:0.24565882 57:-0.83876288 58:1.5935825 59:-1.4091053 60:1.5747908 61:-0.29324442 62:-1.5842103 63:-0.33766852 64:0.31250186 
0.1642613077102016 0 0 1:-0.51541396 2:-0.99625671 3:-0.30112458 4:-1.0457444 5:-0.62445082 6:1.0215278 7:-0.4786065 8:-0.46175812 9:-0.55801418 10:1.6491749 11:-0.64463732 12:0.99571716 13:-0.21016402 14:1.3714802 15:-0.50818258 16:-0.69745616 17:-0.35102628 18:1.4366563 19:-0.36542532 20:1.4280759 21:-0.57137021 22:-1.4323788 23:-0.21889929 24:0.87632918 25:-0.3311985 26:0.68266141 27:-0.32442016 28:0.68158341 29:-0.69767586 30:-0.6821227 31:-0.31589394 32:0.23408054 33:-0.15128689 34:-1.6131601 35:-0.2520287 36:-1.6133664 37:-0.75730327 38:1.6132637 39:0.1194052 40:0.14920813 41:-0.8605903 42:0.91352679 43:-1.5864336 44:0.91334237 45:-0.16796231 46:-0.91343491 47:-0.67557132 48:0.90641946 49:-0.10676051 50:1.3433446 51:0.13438969 52:1.3349246 53:-0.65140904 54:-1.3391504 55:0.28002579 56:0.95103094 57:-0.42983719 58:1.439624 59:-0.75062584 60:1.4273319 61:-0.045740762 62:-1.4335217 63:-0.56892707 64:0.73584236 
0.1642613077102016 0 0 1:-0.49102361 2:-1.0007036 3:0.19672519 4:-1.0527721 5:1.1011241 6:1.0271625 7:-0.46874733 8:-0.32372979 9:-0.53394943 10:1.6605824 11:0.01540054 12:0.9978112 13:1.1145488 14:1.3772487 15:-0.56428267 16:-0.52722198 17:-0.3775677 18:1.3919362 19:0.05806212 20:1.3846108 21:0.69516151 22:-1.3882887 23:-0.30896046 24:0.30786543 25:-0.32938067 26:0.56379258 27:-0.058641929 28:0.5633219 29:-0.053254328 30:-0.56355769 31:-0.37565175 32:-0.52557714 33:-0.29724316 34:-1.7289398 35:-0.33131816 36:-1.7294352 37:0.77623517 38:1.7291879 39:-0.26612633 40:-0.35850581 41:-0.71235057 42:0.80155634 43:-0.96543535 44:0.80168354 45:-0.17916352 46:-0.8016203 47:-0.32456411 48:-0.17672357 49:-0.33526001 50:1.2994896 51:-0.4585501 52:1.2923539 53:1.0840249 54:-1.2959402 55:-0.35527604 56:-0.29023012 57:-0.24340146 58:1.3862429 59:-0.10878446 60:1.3760639 61:0.68173539 62:-1.3812026 63:-0.18744673 64:-0.33488361 
0.1642613077102016 0.1642613077102016 0 1:-0.38250242 2:-0.95111024 3:-0.17827955 4:-0.97654011 5:0.083345679 6:0.96519139 7:-0.40571311 8:-0.2913294 9:-0.45923937 10:1.5616612 11:-0.57990651 12:0.97777021 13:0.30316657 14:1.3247555 15:-0.4951335 16:-0.45073915 17:-0.26133979 18:1.3529385 19:0.025970459 20:1.3466733 21:0.34664042 22:-1.3498231 23:-0.1999507 24:-0.17342074 25:-0.20212932 26:0.47633119 27:-0.19673843 28:0.47625088 29:0.24484863 30:-0.47629155 31:-0.13749274 32:-0.53251096 33:-0.13335533 34:-1.8477737 35:0.29483233 36:-1.848605 37:0.25277084 38:1.8481897 39:-0.017297605 40:-0.33684175 41:-0.78849368 42:0.76821877 43:-1.2100392 44:0.76843158 45:-0.18357892 46:-0.76832553 47:-0.74320607 48:-0.53430433 49:0.032474869 50:1.2717238 51:0.18846753 52:1.265375 53:0.043181157 54:-1.2685693 55:0.42966837 56:-0.29112177 57:0.092952286 58:1.3482783 59:0.60008961 60:1.3395425 61:-0.13664418 62:-1.343963 63:0.57288339 64:-0.21873498 
0.1642613077102016 0.1571544428883437 0.006580440614339334 1:-0.18712806 2:-1.0185973 3:-0.13317446 4:-1.0807425 5:0.63137331 6:1.0497106 7:-0.33486892 8:-0.41758521 9:-0.28929003 10:1.7757528 11:-0.64232003 12:1.0203148 13:0.17276676 14:1.4372669 15:-0.60047381 16:-0.76084741 17:-0.10626854 18:1.3260903 19:-0.33934868 20:1.3205367 21:0.31726293 22:-1.323332 23:-0.40518722 24:-0.63809315 25:-0.086343629 26:0.50255886 27:-0.3787158 28:0.50235426 29:-0.098567909 30:-0.50245705 31:-0.40782388 32:-0.25850739 33:-0.060510212 34:-1.8720731 35:-0.68030078 36:-1.872977 37:0.20570986 38:1.8725254 39:-0.58177799 40:-0.30985964 41:-0.71444511 42:0.83959509 43:-1.0905796 44:0.83962397 45:-0.48624277 46:-0.83960988 47:-0.64695055 48:-0.61847598 49:-0.18871962 50:1.2686013 51:-0.35377712 52:1.262341 53:0.05178335 54:-1.2654912 55:-0.62953481 56:-0.68964826 57:-0.26222273 58:1.3393534 59:-0.33475136 60:1.3309527 61:-0.048966866 62:-1.3352063 63:-0.70368556 64:-0.42773755 
0.1642613077102016 0 0 1:-0.1789723 2:-1.023845 3:0.51221834 4:-1.0889812 5:-0.45196386 6:1.0563378 7:-0.36629055 8:-0.48954126 9:-0.24575578 10:1.7702738 11:0.32877989 12:1.0192799 13:-0.43354591 14:1.4344593 15:-0.4787328 16:-0.77894438 17:-0.068794527 18:1.3260045 19:0.54972125 20:1.320453 21:-1.2211481 22:-1.3232472 23:-0.16172601 24:-0.59498576 25:-0.074360299 26:0.70383297 27:0.18870999 28:0.70269115 29:-0.66079952 30:-0.70326237 31:-0.40488907 32:-0.6807958 33:-0.0066529518 34:-1.6265423 35:0.58059699 36:-1.6267783 37:-1.2838176 38:1.6266607 39:-0.38152303 40:0.0004009399 41:-0.69068331 42:0.95040922 43:-1.0672164 44:0.95012258 45:-0.33630015 46:-0.95026622 47:-0.69214315 48:0.069942971 49:-0.062038151 50:1.2728838 51:0.0049185461 52:1.2665037 53:-0.92792721 54:-1.2697136 55:-0.59013209 56:-0.86092156 57:0.087530395 58:1.3260227 59:0.090063384 60:1.3181176 61:-0.51695857 62:-1.3221245 63:-0.15499857 64:-0.78244764 
0.1642613077102016 0 0 1:-0.14693157 2:-1.0162093 3:0.015589409 4:-1.0769151 5:0.53482817 6:1.0466634 7:-0.18194059 8:-0.56597751 9:-0.22975373 10:1.7864208 11:-0.47447293 12:1.0223122 13:0.13299538 14:1.4427094 15:-0.3996265 16:-0.70932144 17:-0.058362948 18:1.3138667 19:0.28716481 20:1.3086309 21:-0.37363282 22:-1.3112678 23:-0.1699759 24:-0.12966041 25:0.010515808 26:0.77839435 27:-0.046794304 28:0.77686805 29:-0.20056886 30:-0.7776314 31:-0.025722402 32:-0.67621193 33:0.091751796 34:-1.4185313 35:0.21037678 36:-1.418287 37:-1.1436681 38:1.4184096 39:0.051876925 40:-0.56905271 41:-0.59619469 42:1.0095984 43:-0.8916396 44:1.0091298 45:-0.4173591 46:-1.0093644 47:-0.020518762 48:0.33836887 49:0.21050343 50:1.2683398 51:0.47624323 52:1.2620847 53:-1.136598 54:-1.2652323 55:0.28255259 56:-0.02281052 57:0.33017049 58:1.3146355 59:0.5748989 60:1.3071381 61:-0.95908481 62:-1.3109419 63:0.52685124 64:0.39209041 
0.1642613077102016 0 0 1:-0.23174263 2:-1.0173305 3:0.11110276 4:-1.0786753 5:0.40550897 6:1.0480793 7:-0.37530304 8:-0.58586366 9:-0.31801263 10:1.8591944 11:-0.17674336 12:1.0359069 13:0.29940502 14:1.4797938 15:-0.56142888 16:-0.7258812 17:-0.13212027 18:1.294862 19:-0.13321615 20:1.2901164 21:0.46023855 22:-1.292509 23:-0.27777131 24:-0.56399355 25:-0.084123387 26:0.81967716 27:0.26215363 28:0.81793032 29:0.04223994 30:-0.81880386 31:-0.22092082 32:-0.6651851 33:-0.0578958 34:-1.4208964 35:-0.036980159 36:-1.4206561 37:0.61896282 38:1.4207767 39:-0.29747256 40:-0.69276868 41:-0.66079849 42:0.84157999 43:-0.96478412 44:0.84160221 45:0.28591049 46:-0.84159145 47:-0.30778105 48:-0.21930052 49:-0.12513245 50:1.2341018 51:-0.21170129 52:1.228792 53:0.86558428 54:-1.2314686 55:-0.45913224 56:-0.16751443 57:-0.048269451 58:1.2516842 59:-0.038395268 60:1.2464364 61:0.86315174 62:-1.2491195 63:-0.10974327 64:-0.10324762 
0.1642613077102016 0 0 1:-0.17688997 2:-1.0321578 3:0.10462719 4:-1.1021285 5:-0.023149502 6:1.0668746 7:-0.23502602 8:-0.54010613 9:-0.25337255 10:1.9409707 11:0.3294454 12:1.0507927 13:0.34565048 14:1.5209296 15:-0.41154819 16:-0.76263784 17:-0.049377133 18:1.2766694 19:0.3209053 20:1.2723855 21:0.048087422 22:-1.274548 23:-0.023771494 24:-0.63648552 25:-0.021647226 26:0.81929631 27:0.038432974 28:0.81754897 29:0.78486624 30:-0.81842276 31:-0.14068727 32:-0.55418649 33:-0.0072156902 34:-1.4445309 35:0.41111986 36:-1.4443421 37:0.34266773 38:1.4444369 39:-0.30667993 40:-0.42968821 41:-0.75224469 42:0.71962484 43:-1.2369267 44:0.71995495 45:0.20336203 46:-0.71979026 47:-0.76658897 48:-0.43979737 49:-0.07118717 50:1.1949236 51:0.098748743 52:1.1906644 53:0.6122518 54:-1.1928174 55:-0.46184203 56:-0.49384621 57:-0.046441832 58:1.1947786 59:-0.23969316 60:1.1914639 61:0.59963007 62:-1.1931832 63:-0.35681528 64:-0.41439847 
0.1642613077102016 0 0 1:0.037518227 2:-1.0398788 3:0.48502143 4:-1.1144149 5:0.2186821 6:1.0766913 7:0.14350538 8:-0.54091006 9:-0.053048159 10:1.9853792 11:0.70378078 12:1.05871 13:0.13302908 14:1.5430375 15:-0.027664586 16:-0.79967435 17:0.068081874 18:1.2124971 19:0.77898067 20:1.2097852 21:-0.44413616 22:-1.2111638 23:0.12865031 24:0.092185479 25:0.081056923 26:1.0555685 27:0.67963608 28:1.0524603 29:0.25312146 30:-1.054014 31:0.032876982 32:-0.66933568 33:0.14520167 34:-1.2123342 35:0.38436966 36:-1.2117188 37:-0.86581958 38:1.2120269 39:0.084458264 40:-0.065639371 41:-0.69241457 42:0.70887966 43:-1.0054173 44:0.70923313 45:-0.91919836 46:-0.70905675 47:-0.6567418 48:0.0010178864 49:0.1220483 50:1.1487998 51:0.6105649 52:1.1457312 53:-0.96957026 54:-1.1472905 55:0.071025431 56:0.11801222 57:0.14103843 58:1.1160077 59:0.46838044 60:1.1152072 61:-0.70701955 62:-1.115672 63:0.1229505 64:0.1121803 
0.1642613077102016 0 0 1:-0.16483034 2:-1.0369976 3:-0.16385931 4:-1.1098132 5:-0.93404469 6:1.0730213 7:-0.57792624 8:-0.58061623 9:-0.21617225 10:2.020726 11:-0.45189715 12:1.0649157 13:-1.0889684 14:1.5604996 15:-0.5639554 16:-0.76943981 17:-0.037419457 18:1.1967098 19:0.1896906 20:1.1943735 21:-0.6816681 22:-1.1955648 23:-0.34232161 24:-0.67814312 25:0.013809751 26:1.0397897 27:0.10475981 28:1.0367738 29:-0.68901784 30:-1.0382813 31:-0.21426208 32:-0.49970789 33:0.043458761 34:-1.123981 35:0.17083954 36:-1.1232242 37:-0.48947634 38:1.123603 39:-0.26320043 40:-0.50919528 41:-0.67127664 42:0.69133632 43:-0.73850724 44:0.69173259 45:-0.49240087 46:-0.69153482 47:-0.60151901 48:-0.64558928 49:0.00085691311 50:1.1280283 51:0.042727312 52:1.1254834 53:-0.15324539 54:-1.1267815 55:-0.26639481 56:-0.2790291 57:0.095348109 58:1.0793849 59:0.1803223 60:1.0796941 61:0.011738655 62:-1.0796047 63:0.033958169 64:0.15716128 
0.1081965814783226 0.1642613077102016 0.1642613077102016 1:5.1233263 2:-1.0130349 3:1.5456902 4:-1.072714 5:3.5783631 6:1.042971 7:6.1510939 8:0.091041618 9:4.3865921 10:2.0015936 11:1.7346838 12:1.061234 13:3.3639531 14:1.5505968 15:5.1634833 16:-0.41810375 17:4.591797 18:1.1953257 19:1.9972648 20:1.1929806 21:3.4815035 22:-1.1941761 23:5.8229223 24:4.7086222 25:4.6967326 26:1.3824963 27:1.9773262 28:1.3762393 29:3.2455529 30:-1.3793642 31:5.7023653 32:4.7330267 33:5.2749962 34:-0.74909132 35:1.4335269 36:-0.74834368 37:2.4286309 38:0.74871776 39:6.6187938 40:5.213364 41:6.4376212 42:0.84939327 43:0.79175651 44:0.84931025 45:2.6437305 46:-0.84935205 47:8.7710418 48:5.5716459 49:4.6003058 50:1.1439169 51:1.6529506 52:1.1408931 53:1.8229761 54:-1.1424296 55:5.7848082 56:5.0708426 57:4.9450415 58:1.076262 59:1.886026 60:1.076473 61:1.546021 62:-1.0764313 63:5.8909016 64:5.2534148 
0.1082352199925017 0.1642613077102016 0.1642613077102016 1:2.8854341 2:-0.94764374 3:2.9529073 4:-0.97632146 5:2.8096429 6:0.96294902 7:3.910801 8:1.2675869 9:2.7233699 10:2.0102265 11:2.6356565 12:1.0597494 13:0.66025887 14:1.550739 15:3.4427454 16:0.49637939 17:3.0483529 18:1.1598733 19:2.7629546 20:1.15832 21:1.6006556 22:-1.1591203 23:4.1735658 24:6.4497705 25:3.1878834 26:0.96945703 27:3.4600539 28:0.96542966 29:3.2687309 30:-0.96744125 31:4.3162816 32:5.9511333 33:2.8776023 34:-0.71234527 35:3.1025748 36:-0.71183092 37:1.1922159 38:0.7120882 39:4.0400366 40:6.9449735 41:0.85713546 42:0.95460294 43:0.70455479 44:0.95425537 45:5.021082 46:-0.95442943 47:2.8812286 48:4.0212012 49:3.5919304 50:1.1009241 51:3.1658337 52:1.0989247 53:0.59891776 54:-1.0999501 55:4.5258768 56:6.4524321 57:3.6379255 58:1.0086583 59:2.7504437 60:1.0107275 61:1.0611382 62:-1.0097567 63:4.4159265 64:6.4554604 
0.1642613077102016 0.1642613077102016 0.07408097277368222 1:0.56375267 2:-1.0176035 3:1.1966529 4:-1.0794974 5:-0.32581526 6:1.0485821 7:1.044055 8:-0.12820555 9:0.88600812 10:1.7865422 11:1.6063337 12:1.0198016 13:0.071434185 14:1.4393979 15:1.4728474 16:0.29062798 17:0.70374664 18:1.179458 19:1.1856665 20:1.177512 21:-0.48111885 22:-1.1785085 23:1.235458 24:2.1264157 25:0.5457368 26:0.85234498 27:1.0963721 28:0.85008873 29:-0.21771919 30:-0.85121649 31:0.92426435 32:2.3532242 33:0.56018642 34:-0.39981143 35:0.63986029 36:-0.39864524 37:0.44367712 38:0.39922844 39:0.79774857 40:1.8438297 41:-0.30882919 42:0.84072339 43:-0.35419498 44:0.84074768 45:2.4373453 46:-0.84073588 47:-0.01698822 48:-0.16564877 49:0.5452573 50:1.1365152 51:0.72833177 52:1.1337387 53:0.32739473 54:-1.1351522 55:0.66277657 56:2.0212123 57:0.48217823 58:1.0552263 59:0.13280582 60:1.0562131 61:0.62266314 62:-1.0557849 63:0.45364144 64:1.8021116 
0.1642613077102016 0.1642613077102016 0 1:0.2389717 2:-1.0379373 3:0.42160032 4:-1.111418 5:0.053347738 6:1.0742598 7:0.047824419 8:-0.37000216 9:0.29973304 10:0.87801466 11:0.62348793 12:0.81073689 13:-0.054757731 14:0.92716422 15:0.18802822 16:0.49021327 17:0.39042532 18:1.129699 19:0.31150157 20:1.1288913 21:0.7195827 22:-1.1293198 23:0.094125459 24:0.17184146 25:0.3418869 26:0.3556818 27:0.19421726 28:0.35608015 29:0.19733464 30:-0.35588151 31:0.010684776 32:-0.053474822 33:0.36976797 34:-0.70792496 35:-0.096740447 36:-0.70675625 37:0.94098873 38:0.70734086 39:-0.0057565417 40:-0.20710053 41:-0.37482409 42:0.83876122 43:-0.45666406 44:0.83879171 45:0.54785219 46:-0.83877681 47:-0.53122661 48:-0.41401356 49:0.31524627 50:1.1098623 51:0.47418998 52:1.1077669 53:1.3857847 54:-1.1088408 55:-0.12924686 56:-0.49608323 57:0.24616952 58:1.0186295 59:0.51085582 60:1.0206998 61:1.264774 62:-1.0197304 63:-0.31574109 64:-0.33445213 
0.1642613077102016 0.1642613077102016 0 1:0.27132145 2:-1.0337137 3:-0.1814004 4:-1.1046567 5:0.57793846 6:1.0688737 7:-0.21131886 8:-0.42483545 9:0.24886888 10:0.31808797 11:0.22864211 12:0.63237503 13:0.40728424 14:0.55550024 15:-0.20300818 16:-0.32976847 17:0.50707803 18:1.0884114 19:0.75584907 20:1.0885009 21:0.65309688 22:-1.0884816 23:0.067902639 24:-0.0021001133 25:0.40030538 26:-0.0049416074 27:-0.053313474 28:-0.0033180474 29:0.32833661 30:0.0041294236 31:-0.3058764 32:-0.19942287 33:0.52540838 34:-0.8536331 35:1.1159542 36:-0.85256531 37:0.55815728 38:0.85309952 39:0.083717017 40:-0.47000169 41:-0.16786272 42:0.80999552 43:0.3208931 44:0.81009415 45:-0.08889049 46:-0.81004518 47:0.1275961 48:0.91227962 49:0.40108202 50:1.0987071 51:1.01731 52:1.0968835 53:0.12764399 54:-1.0978218 55:-0.27017364 56:-0.37943145 57:0.29653636 58:1.0050113 59:0.27430044 60:1.0074597 61:-0.13767215 62:-1.0063012 63:-0.56616153 64:-0.22463396 
0.1642613077102016 0.1642613077102016 0.04957305579680651 1:0.32940763 2:-1.0615794 3:0.21782418 4:-1.1492556 5:-0.94079015 6:1.104405 7:-0.26159112 8:-0.51500077 9:0.30254691 10:0.30081467 11:0.013489422 12:0.62657226 13:-0.59991248 14:0.54367205 15:-0.29464211 16:-0.66090351 17:0.5135554 18:1.0488934 19:0.2910044 20:1.0498071 21:-1.1563495 22:-1.0493761 23:-0.19948491 24:0.25203095 25:0.48531659 26:-0.17936148 27:0.74515902 28:-0.17728516 29:-0.28295254 30:0.17832309 31:-0.14717895 32:-0.4768808 33:0.55231525 34:-1.014639 35:0.5239045 36:-1.0137437 37:-1.620625 38:1.0141917 39:-0.12823326 40:-0.10931815 41:-0.13158412 42:0.71524855 43:0.35508524 44:0.71558869 45:-0.35159683 46:-0.71541898 47:-0.12580859 48:-0.36384935 49:0.54619508 50:1.0578561 51:0.39726286 52:1.0570028 53:-1.4525893 54:-1.0574568 55:-0.15836099 56:0.21538859 57:0.71151476 58:0.94848567 59:0.92386207 60:0.95244917 61:-0.85221681 62:-0.95053278 63:0.2644439 64:-0.17313025 
0.1642613077102016 0.1642613077102016 0 1:0.23843061 2:-1.0507561 3:0.078984466 4:-1.1318063 5:-0.8656163 6:1.0905539 7:-0.16374241 8:-0.59022847 9:0.24158748 10:0.39743476 11:0.12827859 12:0.66309425 13:-1.3129687 14:0.61370114 15:-0.20234445 16:-0.59589458 17:0.45743889 18:1.0373556 19:0.4599637 20:1.0385051 21:-0.9945775 22:-1.0379564 23:-0.099997098 24:-0.086018133 25:0.47475598 26:-0.052834602 27:0.33899714 28:-0.051073276 29:-1.3368275 30:0.051953574 31:0.12324038 32:-0.36025205 33:0.48702887 34:-0.91455594 35:0.289051 36:-0.91354463 37:-0.73770987 38:0.91405063 39:-0.094949775 40:-0.5042114 41:-0.30023864 42:0.80180049 43:-0.21192725 44:0.80192652 45:-0.52856625 46:-0.80186386 47:-0.37597499 48:-0.055676509 49:0.4249956 50:1.021747 51:0.90173016 52:1.0217243 53:-0.8598047 54:-1.0217637 55:-0.24231465 56:0.029595906 57:0.33913821 58:0.91157394 59:0.81198053 60:0.91647326 61:-0.95727669 62:-0.91408835 63:-0.4128968 64:0.1634868 
0.1642613077102016 0.1642613077102016 0 1:-0.05561841 2:-1.026067 3:0.078382117 4:-1.0925346 5:0.45639626 6:1.0591699 7:-0.27728836 8:-0.41923656 9:-0.086877958 10:0.47846186 11:0.14586803 12:0.69223739 13:0.37920175 14:0.67099129 15:-0.32654611 16:-0.7905814 17:0.13173302 18:1.0181051 19:0.11656036 20:1.0196405 21:0.77778791 22:-1.018899 23:-0.27985485 24:-0.27487095 25:0.10502198 26:0.26177077 27:0.15153576 28:0.26252106 29:0.91023771 30:-0.26214644 31:-0.29368236 32:0.024664239 33:0.16137782 34:-0.90477406 35:0.45478988 36:-0.90375256 37:1.2056121 38:0.90426365 39:-0.32026796 40:-0.56001612 41:-0.3113049 42:0.8152747 43:-0.13164353 44:0.81536783 45:1.7498518 46:-0.81532162 47:-0.021490792 48:-0.60765932 49:0.23630762 50:0.98822909 51:0.67122938 52:0.98895188 53:1.0377962 54:-0.988619 55:-0.048354271 56:-0.23937788 57:0.19165811 58:0.87506086 59:0.26809914 60:0.88085544 61:0.89945465 62:-0.8780221 63:-0.10771702 64:-0.3602354 
0 0.06327383136975478 0.1642613077102016 1:1.3364074 2:1.8734631 3:1.8646922 4:1.8475411 5:-1.0169749 6:1.8604776 7:0.91694322 8:1.0798701 9:1.3258597 10:1.9725555 11:1.7447443 12:1.9356623 13:-1.0065449 14:1.9540739 15:0.89170336 16:1.0384722 17:2.4132333 18:0.96659376 19:1.2090271 20:0.96273813 21:-0.99761498 22:-0.9646813 23:1.0470325 24:1.3446518 25:2.165936 26:-1.5298865 27:2.7891814 28:-1.5854734 29:-0.99080394 30:-1.5575482 31:0.97973866 32:1.2700847 33:2.2797233 34:0.8168839 35:1.5961233 36:0.76175633 37:-0.97900395 38:0.78850653 39:1.0410129 40:1.2543452 41:1.934716 42:1.6594051 43:1.6035939 44:1.6245578 45:-1.0609975 46:-1.6419145 47:1.0301322 48:1.1557741 49:-1.7262578 50:-1.6240691 51:-1.5968979 52:-1.6499716 53:0.80669677 54:-1.6370004 55:-2.1200386 56:-0.95667587 57:-1.5161491 58:1.230663 59:-0.64749669 60:1.2299698 61:1.2132551 62:-1.2303197 63:-1.0964849 64:-1.3473125 
0 0.05087240338564364 0.1426762370072353 1:-1.2130898 2:1.8076374 3:-0.56423325 4:1.7871083 5:0.9815629 6:1.7973905 7:-0.90157962 8:-1.3983467 9:-1.121708 10:1.8952699 11:0.044032573 12:1.8649115 13:1.0005883 14:1.8801133 15:-0.82357973 16:-1.4053272 17:0.6909018 18:0.8457188 19:-0.15107808 20:0.85298473 21:1.0566159 22:-0.84937897 23:-0.61859501 24:-1.3529922 25:0.24585343 26:-1.5136193 27:0.34270595 28:-1.5646538 29:1.0391562 30:-1.5390887 31:-0.63734827 32:-1.380971 33:0.52566421 34:1.0010035 35:0.61999546 36:1.0512291 37:1.0430043 38:1.0264536 39:-0.6839529 40:-1.3573262 41:-0.43056315 42:1.660099 43:-0.082736543 44:1.6306354 45:0.99011348 46:-1.6453734 47:-1.0001729 48:-1.3701219 49:-1.5029077 50:-1.5737363 51:0.20858459 52:-1.5970193 53:1.0791307 54:-1.5853694 55:0.06954148 56:0.18457639 57:-1.3193644 58:0.81201604 59:-0.83011536 60:0.81229169 61:0.50746354 62:-0.8121538 63:-1.001071 64:0.56754814 
0.03844703834519175 0.1566939068163594 0.1642613077102016 1:1.3161742 2:1.9720948 3:2.3412101 4:1.9418457 5:0.79508873 6:1.9569357 7:0.70639174 8:1.1568214 9:1.3286818 10:1.9705877 11:2.4166097 12:1.9337624 13:0.74619431 14:1.9521445 15:0.6767157 16:1.0914677 17:2.3636079 18:0.61604871 19:2.5635838 20:0.61559022 21:0.7424362 22:-0.61579797 23:0.85916645 24:1.4861053 25:2.1026581 26:-1.4188418 27:0.97029265 28:-1.4615353 29:0.72907314 30:-1.4401721 31:0.75135287 32:1.113661 33:2.2272118 34:2.1919289 35:1.5224506 36:2.0952792 37:0.79141501 38:2.1441362 39:0.84543592 40:1.4116723 41:1.9191944 42:1.4618156 43:1.407574 44:1.4386977 45:0.86837507 46:-1.4502238 47:0.84252873 48:1.1874537 49:-1.7564721 50:-1.5583538 51:-0.48461356 52:-1.5808164 53:-0.83666816 54:-1.5695804 55:-1.7642298 56:-0.9522705 57:-1.449062 58:0.98086447 59:-1.1284331 60:0.98184668 61:-1.1986134 62:-0.98135948 63:-0.77581806 64:-1.097398 
0.03454354852332068 0 0.1083998993680234 1:-1.1328415 2:2.0050361 3:1.7671736 4:1.9761878 5:-1.1496668 6:1.9905995 7:-0.48426618 8:-1.3601356 9:-0.9751449 10:1.9748219 11:-0.22400175 12:1.9392956 13:-1.1688469 14:1.9570515 15:-0.3948677 16:-1.3156788 17:0.73257412 18:0.88893437 19:1.0341629 20:0.89541223 21:-1.2113734 22:-0.89220194 23:-0.1839665 24:-1.2154233 25:0.27757271 26:-1.4379403 27:0.08181437 28:-1.4803989 29:-1.2399043 30:-1.4591991 31:-0.22986694 32:-1.2510665 33:0.578868 34:1.148465 35:0.22826202 36:1.1939006 37:-1.2039075 38:1.1715161 39:-0.22602865 40:-1.2264641 41:-0.36934105 42:1.4603599 43:0.28658298 44:1.4428064 45:-1.1486779 46:-1.451646 47:-0.55555317 48:-1.3368543 49:-1.3989827 50:-1.6427669 51:0.7703627 52:-1.6697085 53:-0.77701859 54:-1.6562127 55:-0.020388986 56:0.28503452 57:-1.2772202 58:1.494529 59:-0.56047825 60:1.4896929 61:-0.24713381 62:-1.4921097 63:-1.1299293 64:0.48138061 
0 0 0.08107468469529232 1:1.3419263 2:1.8109978 3:2.3162974 4:1.7877502 5:-0.77650973 6:1.7993618 7:0.62286023 8:0.99498024 9:1.3302661 10:1.8680398 11:1.7605539 12:1.8377533 13:-0.75245894 14:1.8528995 15:0.59700736 16:1.1242996 17:2.3225417 18:1.2173052 19:1.1811096 20:1.2100478 21:-0.7263917 22:-1.2136827 23:0.71791669 24:1.2087765 25:2.0651188 26:-1.5317983 27:0.8788871 28:-1.5875942 29:-0.73965857 30:-1.5595615 31:0.6734281 32:1.2566095 33:2.1775354 34:-0.24386262 35:0.43960039 36:-0.29423327 37:-0.75605771 38:-0.26971204 39:0.74055718 40:1.2318785 41:1.9143897 42:1.652968 43:0.68248889 44:1.6183674 45:-0.83481177 46:-1.6355989 47:0.75592257 48:1.2042182 49:-1.6852263 50:-1.6564779 51:-1.9251357 52:-1.6841278 53:0.89943253 54:-1.6702747 55:-1.6590377 56:-1.3057875 57:-1.3859499 58:1.3657868 59:-2.0167412 60:1.3635693 61:1.2106457 62:-1.3646797 63:-0.6892778 64:-0.83079403 
0.01835498935512678 0 0 1:-1.1212045 2:1.6327452 3:-0.10196529 4:1.6187713 5:1.0738816 6:1.6257943 7:-0.47719479 8:-1.2721375 9:-0.98564613 10:1.8032595 11:-0.80872675 12:1.778505 13:1.0938485 14:1.7909331 15:-0.4060679 16:-1.2205501 17:0.70197805 18:1.1494031 19:0.33208614 20:1.1518715 21:1.1317762 22:-1.1506664 23:-0.18724077 24:-1.2313812 25:0.26365403 26:-1.5061701 27:0.53595906 28:-1.5563743 29:1.1017629 30:-1.5312314 31:-0.2401552 32:-1.2906894 33:0.51659651 34:0.0086055732 35:-1.092977 36:0.065101205 37:1.1256494 38:0.036872158 39:-0.25863422 40:-1.2741871 41:-0.41240259 42:1.6369298 43:0.041064755 44:1.6089399 45:1.035116 46:-1.6229488 47:-0.57558531 48:-1.3840092 49:-1.3869659 50:-1.5915436 51:-0.31809563 52:-1.6157584 53:0.95275133 54:-1.6036384 55:-0.079668793 56:0.33491381 57:-1.2360101 58:1.0239304 59:-0.51075136 60:1.023026 61:0.27582924 62:-1.0234783 63:-1.081006 64:0.47222224 
0 0.07333409131409868 0.1642613077102016 1:1.3936824 2:1.7549646 3:0.50944746 4:1.7337377 5:0.68511072 6:1.7443508 7:0.49266467 8:1.0919078 9:1.3675222 10:1.8680636 11:-0.16314273 12:1.8377513 13:0.66177594 14:1.8529137 15:0.46001471 16:1.1412447 17:2.3037559 18:0.79604086 19:2.5900075 20:0.79612212 21:0.61076232 22:-0.79607263 23:0.62169061 24:1.0369094 25:2.0956322 26:-1.3951773 27:0.017887302 28:-1.4350778 29:0.64850756 30:-1.4151402 31:0.5584844 32:0.95865482 33:2.1971192 34:1.5671581 35:0.70365299 36:1.5099739 37:0.68134043 38:1.5390583 39:0.62289619 40:1.0551994 41:1.9879842 42:1.4523354 43:-0.27343639 44:1.4300554 45:0.75307578 46:-1.4411723 47:0.65532276 48:1.0935525 49:-1.6867971 50:-1.5426586 51:-1.9882577 52:-1.5643213 53:-1.0456051 54:-1.5534886 55:-1.3894305 56:-1.0002353 57:-1.3500207 58:1.063066 59:-2.1817281 60:1.0630129 61:-1.2758303 62:-1.063043 63:-0.48224296 64:-0.52233742 
0.1395197232169871 0.1642613077102016 0.1642613077102016 1:-1.0274406 2:1.7738988 3:-0.53522976 4:1.7546733 5:-1.2114607 6:1.7643073 7:-0.33192092 8:-1.3422287 9:-0.91956992 10:1.8630721 11:-1.5012314 12:1.8346966 13:-1.2400738 14:1.8489169 15:-0.25422137 16:-1.293999 17:0.70680899 18:0.81909497 19:0.32843804 20:0.82635637 21:-1.20193 22:-0.82275309 23:-0.080178647 24:-1.1492819 25:0.32248778 26:-1.3811334 27:-0.11621683 28:-1.4174829 29:-1.2712493 30:-1.3993876 31:-0.078046233 32:-1.1452697 33:0.52755416 34:1.6738636 35:-1.1211901 36:1.7072186 37:-1.2289543 38:1.6909936 39:-0.14214478 40:-1.1645504 41:-0.35478889 42:1.4262488 43:-0.72278909 44:1.4105831 45:-1.1915153 46:-1.4184865 47:-0.42760535 48:-1.3324992 49:-1.2694211 50:-1.5046779 51:-0.61997834 52:-1.5245299 53:-0.80809487 54:-1.5146093 55:-0.087977813 56:1.5613143 57:-1.2256754 58:1.2344517 59:-2.0281946 60:1.2318911 61:-0.20796909 62:-1.2331717 63:-1.1339043 64:0.52713936 
0.1581981358094192 0 0 1:1.263188 2:1.5502957 3:-0.35308766 4:1.5365456 5:-0.72613436 6:1.543436 7:0.57451447 8:1.0682094 9:1.2247398 10:1.7449385 11:0.17950366 12:1.7220072 13:-0.70024459 14:1.7335128 15:0.55469082 16:1.1464153 17:2.1546804 18:1.1600125 19:1.1547008 20:1.1545682 21:-0.72519643 22:-1.1572998 23:0.69410708 24:1.0589345 25:1.9493028 26:-1.4417779 27:-0.076706811 28:-1.4871056 29:-0.71782395 30:-1.4644094 31:0.64028572 32:1.194523 33:2.0456345 34:0.5735518 35:1.1100497 36:0.53145692 37:-0.75568141 38:0.55192516 39:0.69700751 40:1.0800253 41:1.8055773 42:1.5667987 43:1.3570964 44:1.5374449 45:-0.81164667 46:-1.5520828 47:0.71166991 48:1.2176365 49:-1.6118558 50:-1.4741649 51:-0.8938399 52:-1.4924359 53:0.84397802 54:-1.4833127 55:-1.4111643 56:-1.448466 57:-1.3284836 58:1.0885027 59:-1.669677 60:1.0882681 61:1.2076424 62:-1.0883871 63:-0.57875221 64:-0.51935365 
0.06760771236324666 0 0 1:-1.1099286 2:1.5435752 3:-0.95916184 4:1.5326982 5:1.1166055 6:1.5381797 7:-0.44964261 8:-1.2509748 9:-1.0324155 10:1.7458956 11:-0.011562669 12:1.7245104 13:1.1302901 14:1.7352695 15:-0.38557172 16:-1.2048937 17:0.58220056 18:1.2600838 19:-0.22509651 20:1.2602853 21:1.0976933 22:-1.2602116 23:-0.19524097 24:-1.1026585 25:0.19458549 26:-1.4366995 27:-0.69365687 28:-1.4790561 29:1.1382266 30:-1.4579069 31:-0.23499109 32:-1.1831734 33:0.41370197 34:0.3524872 35:-0.45734638 36:0.4069502 37:1.1019543 38:0.37986772 39:-0.27773081 40:-1.2312969 41:-0.46880691 42:1.5485812 43:-0.24560144 44:1.526006 45:1.0568322 46:-1.5373346 47:-0.5748334 48:-1.4127323 49:-1.2300406 50:-1.4775003 51:-0.20280327 52:-1.4960143 53:0.90666107 54:-1.486768 55:-0.089381908 56:1.330166 57:-1.1906335 58:1.0909246 59:-0.80572122 60:1.0889451 61:0.27874939 62:-1.0899335 63:-1.0250782 64:0.89797488 
0.1642613077102016 0 0 1:-1.1337005 2:1.414774 3:-0.54867816 4:1.4081693 5:0.98367065 6:1.4115228 7:-0.72491995 8:-1.4473766 9:-1.0712264 10:1.59476 11:-0.64568244 12:1.5817592 13:0.99462914 14:1.5883596 15:-0.65954058 16:-1.4215015 17:0.51056323 18:1.476115 19:-0.066028248 20:1.4723467 21:1.0446877 22:-1.4742588 23:-0.47138589 24:-1.4654026 25:0.1258693 26:-1.3472175 27:0.16940595 28:-1.3798866 29:1.031063 30:-1.3636611 31:-0.49473537 32:-1.4273361 33:0.39128903 34:0.53384266 35:0.29403391 36:0.59066409 37:0.97156682 38:0.56244128 39:-0.52243811 40:-1.4225515 41:-0.49711449 42:1.4414724 43:0.33034112 44:1.4251345 45:0.94214874 46:-1.4333723 47:-0.8386868 48:-1.5179194 49:-1.1814301 50:-1.3763763 51:0.89373717 52:-1.3901359 53:0.78597955 54:-1.3832839 55:0.21233166 56:0.19804466 57:-1.1078088 58:0.98263319 59:-0.5191406 60:0.98183414 61:0.29965509 62:-0.98223332 63:-0.81733373 64:0.59920516 
0.1642613077102016 0.0928575952556744 0.03458383466136718 1:1.1661737 2:1.5609899 3:0.7829857 4:1.5463841 5:0.76245676 6:1.5537063 7:0.77580168 8:1.3328516 9:1.1176738 10:1.6550182 11:-0.069524368 12:1.6369204 13:0.75032341 14:1.6460339 15:0.75528742 16:1.3327833 17:2.0100611 18:1.187586 19:1.542041 20:1.1797537 21:0.71994857 22:-1.1836345 23:0.87734324 24:1.4280221 25:1.779562 26:-1.2641177 27:0.81513449 28:-1.2911574 29:0.74497089 30:-1.2777386 31:0.82161578 32:1.2944369 33:1.9336658 34:1.6532382 35:0.87173755 36:1.5725335 37:0.76930707 38:1.6135964 39:0.89355927 40:1.3808093 41:1.6258778 42:1.2572286 43:0.41102051 44:1.2446958 45:0.84246841 46:-1.2509735 47:0.8816531 48:1.212772 49:-1.4843442 50:-1.3491176 51:-2.3249494 52:-1.3616357 53:-0.94259421 54:-1.3554086 55:-1.7996625 56:-1.2039002 57:-1.2506548 58:1.0232172 59:-0.63998977 60:1.0239007 61:-1.1715226 62:-1.0235628 63:-0.78545798 64:-1.07734 
0.1642613077102016 0.09963738125311238 0.1642613077102016 1:-1.2076281 2:1.479473 3:-0.85445966 4:1.4708371 5:-1.0624307 6:1.4752029 7:-1.0194338 8:-1.4821067 9:-1.1446593 10:1.6051937 11:-1.6561988 12:1.5916672 13:-1.0706379 14:1.5985288 15:-0.96758806 16:-1.4991627 17:0.37945668 18:1.4760133 19:-0.52871537 20:1.4722022 21:-1.0926558 22:-1.474136 23:-0.76345971 24:-1.4324165 25:-0.0065254198 26:-1.2844066 27:-0.96440334 28:-1.3107147 29:-1.0690489 30:-1.2977152 31:-0.8261489 32:-1.5347295 33:0.30913144 34:0.62134184 35:-1.0847537 36:0.67646536 37:-1.0670921 38:0.64909593 39:-0.83149789 40:-1.3677926 41:-0.57226942 42:1.2652745 43:-1.56928 44:1.2580796 45:-0.9869018 46:-1.2617755 47:-1.1444119 48:-1.4645701 49:-1.1973054 50:-1.396253 51:-0.30762189 52:-1.4109317 53:-0.8843289 54:-1.403617 55:0.18559331 56:0.79305371 57:-1.0736276 58:1.4205603 59:-0.18281896 60:1.4163457 61:-0.44573144 62:-1.4184524 63:-0.7584486 64:0.54506676 
0 0 0.1467712026868937 1:1.1744242 2:1.2919336 3:-0.29005915 4:1.2861516 5:-0.96487756 6:1.289073 7:0.84437254 8:1.0903445 9:1.1024187 10:1.4763402 11:0.2685778 12:1.4676506 13:-0.92398617 14:1.4720899 15:0.80648608 16:1.0779182 17:1.9296596 18:1.8675314 19:1.2542741 20:1.8448572 21:-0.95482231 22:-1.8561602 23:0.93346308 24:1.2209422 25:1.7529498 26:-1.3469791 27:1.4640214 28:-1.3822819 29:-0.88313441 30:-1.3646826 31:0.86082839 32:1.298143 33:1.8865656 34:-0.99400238 35:0.91703474 36:-1.0508225 37:-0.96365101 38:-1.0231545 39:0.95687551 40:1.2214216 41:1.5858182 42:1.4422786 43:1.6222425 44:1.4199719 45:-1.0047918 46:-1.4311259 47:0.94271071 48:1.2495393 49:-1.4696086 50:-1.3836053 51:-1.9677356 52:-1.397661 53:0.7626643 54:-1.3906602 55:-1.8883548 56:-0.92462652 57:-1.219945 58:1.5173987 59:-1.2114353 60:1.5139521 61:1.168802 62:-1.5156768 63:-0.81742067 64:-1.1065747 
0 0.05801370688823429 0.1642613077102016 1:-1.1477364 2:1.287752 3:-1.6096639 4:1.2848797 5:0.94126315 6:1.2863712 7:-1.0774424 8:-1.430588 9:-1.1184385 10:1.4643377 11:-1.1612032 12:1.4578537 13:0.96567404 14:1.4612147 15:-1.0190602 16:-1.4833255 17:0.3475859 18:1.7626979 19:0.52967343 20:1.7518038 21:1.0167916 22:-1.7572683 23:-0.8406872 24:-1.4845119 25:0.032698956 26:-1.3078123 27:-1.275807 28:-1.3364656 29:0.95651454 30:-1.3222771 31:-0.86230552 32:-1.4591743 33:0.30392451 34:-0.75787355 35:-0.5139028 36:-0.7012355 37:1.0084798 38:-0.72984112 39:-0.86890702 40:-1.4767573 41:-0.52322067 42:1.3977239 43:-1.6318447 44:1.3837009 45:0.89533192 46:-1.390789 47:-1.1800563 48:-1.4300784 49:-1.0819269 50:-1.314649 51:-0.81891914 52:-1.3257205 53:1.0225286 54:-1.3202206 55:0.27651574 56:0.50949544 57:-1.0267311 58:1.2485824 59:-1.1156375 60:1.2455481 61:0.4886084 62:-1.247063 63:-0.66640929 64:0.78463072 
0.1642613077102016 0 0 1:1.198736 2:1.4077976 3:0.20726413 4:1.3982658 5:0.8822664 6:1.4030628 7:0.83417154 8:1.275796 9:1.1157801 10:1.5183387 11:0.77872368 12:1.5072148 13:0.87705593 14:1.5128657 15:0.79283061 16:1.438851 17:1.8925148 18:1.3639127 19:1.0175339 20:1.3542502 21:0.86640913 22:-1.3590511 23:0.92982763 24:1.1293232 25:1.7470792 26:-1.1946009 27:1.2846136 28:-1.2148301 29:0.85877196 30:-1.2048653 31:0.85117648 32:1.0939179 33:1.8906982 34:0.74496143 35:0.16405106 36:0.69521632 37:0.88153955 38:0.72081711 39:0.93770276 40:1.1356886 41:1.6024684 42:1.2024833 43:0.93037854 44:1.192734 45:0.98046337 46:-1.1976311 47:0.94179921 48:1.1560046 49:-1.4845997 50:-1.2837877 51:-1.5288626 52:-1.2935115 53:-0.82802377 54:-1.2886896 55:-1.7945229 56:-1.524202 57:-1.2010235 58:1.2964397 59:-1.2837602 60:1.2950569 61:-1.158773 62:-1.2957517 63:-0.75657495 64:-1.1338989 
0.1642613077102016 0 0 1:-1.2105724 2:1.3871106 3:-0.63689572 4:1.3812876 5:-1.0618339 6:1.3842507 7:-0.86265861 8:-1.3180404 9:-1.2158261 10:1.4770137 11:0.32024462 12:1.4698882 13:-1.0895731 14:1.4735679 15:-0.80844619 16:-1.352591 17:0.21280882 18:1.3001042 19:0.18833892 20:1.2999717 21:-1.1118293 22:-1.3000689 23:-0.64721473 24:-1.3795656 25:-0.063389454 26:-1.1619967 27:-0.24808606 28:-1.1769928 29:-1.1344733 30:-1.1697134 31:-0.65660505 32:-1.3689095 33:0.21883964 34:1.0411438 35:-0.95958797 36:1.0918544 37:-1.1086045 38:1.0668292 39:-0.68662407 40:-1.4172978 41:-0.64329624 42:1.1506034 43:-0.43001439 44:1.1487491 45:-1.0442875 46:-1.1497859 47:-0.98168512 48:-1.4489387 49:-1.1357646 50:-1.2622621 51:-0.35479536 52:-1.2711885 53:-0.86328278 54:-1.2667668 55:0.10226371 56:1.4842316 57:-1.0422314 58:1.598195 59:-0.24443472 60:1.5919001 61:-0.37126449 62:-1.5950445 63:-0.83427938 64:0.77541009 
0.1642613077102016 0 0 1:1.2280117 2:1.2399524 3:0.71012548 4:1.2356111 5:-0.86685656 6:1.2378145 7:0.70070537 8:1.0809333 9:1.1229494 10:1.3757722 11:0.75691524 12:1.3717534 13:-0.84234489 14:1.3738694 15:0.66925619 16:1.0252866 17:1.8469442 18:1.5632347 19:1.1633766 20:1.5482662 21:-0.82446217 22:-1.5557366 23:0.76694033 24:1.2781125 25:1.7248441 26:-1.2147742 27:0.15024685 28:-1.2369626 29:-0.83461907 30:-1.2260146 31:0.71332792 32:1.1837748 33:1.8823042 34:0.010072664 35:0.80330838 36:-0.038939898 37:-0.83978182 38:-0.015109131 39:0.81542025 40:1.220968 41:1.62751 42:1.3060623 43:1.2325191 44:1.2911637 45:-0.93930922 46:-1.2986467 47:0.82530565 48:1.1836975 49:-1.4728709 50:-1.2185932 51:-2.6417081 52:-1.2256856 53:1.06003 54:-1.2221859 55:-1.5221629 56:-1.0975295 57:-1.1863404 58:1.4062998 59:-1.5318517 60:1.40378 61:1.2670535 62:-1.4050415 63:-0.57432615 64:-0.91597106 
0.1642613077102016 0.1642613077102016 0.1642613077102016 1:-1.2728011 2:1.208097 3:-1.2053189 4:1.2073531 5:1.0568162 6:1.2077817 7:-0.52942776 8:-1.3759792 9:-1.2727816 10:1.3438185 11:-1.2551355 12:1.3427266 13:1.0837847 14:1.3434015 15:-0.46110353 16:-1.3122761 17:0.16483024 18:1.5803001 19:-0.67893155 20:1.5736422 21:1.1108973 22:-1.5769925 23:-0.31406652 24:-1.1761692 25:-0.098106782 26:-1.2174119 27:1.1510761 28:-1.2374842 29:1.1141728 30:-1.2276381 31:-0.30328435 32:-1.2037524 33:0.15358557 34:-0.19112086 35:-1.4154244 36:-0.13641425 37:1.119414 38:-0.16380311 39:-0.35100407 40:-1.1944561 41:-0.72011056 42:1.3212649 43:0.092448684 44:1.3111966 45:1.0436058 46:-1.3163197 47:-0.63176444 48:-1.3753542 49:-1.0420699 50:-1.1972041 51:-0.57598789 52:-1.203557 53:0.74862075 54:-1.200428 55:-0.0023185761 56:1.6799492 57:-1.023959 58:1.1814167 59:-0.2335902 60:1.1787813 61:0.2971269 62:-1.1800971 63:-0.93695765 64:0.88005834 
0.1642613077102016 0.1642613077102016 0 1:-0.78976009 2:1.1920451 3:-1.2824956 4:1.1911922 5:-1.3723125 6:1.1916706 7:0.43100189 8:-0.61874364 9:-0.77732005 10:1.2634603 11:-0.67772716 12:1.2654053 13:-1.3640229 14:1.2645615 15:0.4807552 16:-0.62336205 17:0.44107458 18:1.4490251 19:0.12279933 20:1.4436622 21:-1.4159342 22:-1.4463663 23:0.64130133 24:-0.41483996 25:0.27614457 26:-1.1852956 27:-0.30048564 28:-1.2029601 29:-1.3752135 30:-1.1943254 31:0.63047161 32:-0.41050331 33:0.44888575 34:0.037963683 35:0.33898771 36:0.073500901 37:-1.3945383 38:0.055492601 39:0.60790186 40:-0.48293163 41:-0.3582537 42:1.1592962 43:0.81226132 44:1.1560638 45:-1.3494961 46:-1.1577809 47:0.36183754 48:-0.66756897 49:-0.92608746 50:-1.1966736 51:-0.044861483 52:-1.2029944 53:-0.51385227 54:-1.1998816 55:-0.4010905 56:1.4484155 57:-1.0245905 58:1.6981049 59:-0.70728508 60:1.6917931 61:0.16703761 62:-1.6949466 63:-1.4904141 64:-0.047484192 
0.1642613077102016 0.1642613077102016 0 1:0.9734305 2:1.0152478 3:0.24973451 4:1.0169076 5:-0.3199624 6:1.0161205 7:-0.040994889 8:0.73868911 9:0.78815077 10:1.1199929 11:0.8673263 12:1.1264309 13:-0.30018436 14:1.123334 15:-0.1012479 16:0.56728407 17:1.4751014 18:1.6581413 19:0.10532352 20:1.6429764 21:-0.2629989 22:-1.6505411 23:-0.01148359 24:0.8557537 25:1.4200339 26:-1.2274849 27:0.54676738 28:-1.2504399 29:-0.2718512 30:-1.2391069 31:-0.058107797 32:0.88838139 33:1.5637084 34:-0.99879627 35:-0.6557477 36:-1.0296842 37:-0.29430401 38:-1.0145538 39:0.014912104 40:0.79052492 41:1.4389489 42:1.3065344 43:0.99895397 44:1.2926761 45:-0.39018358 46:-1.2996438 47:0.10046427 48:0.86198823 49:-1.1820311 50:-1.1418708 51:-0.21703043 52:-1.1460492 53:1.3740185 54:-1.1440123 55:-0.094342372 56:-1.0144079 57:-1.0275014 58:1.3552403 59:-0.22696453 60:1.3521244 61:1.323398 62:-1.3536807 63:0.10977178 64:0.157185 
0.1642613077102016 0.1642613077102016 0.06742803449111937 1:-0.56158871 2:1.0606778 3:0.54228464 4:1.0627783 5:1.3818643 6:1.0617816 7:0.82542868 8:-0.38294061 9:-0.56470113 10:1.1332965 11:-0.037919091 12:1.1399376 13:1.3889223 14:1.1367468 15:0.88077145 16:-0.32982056 17:0.55692397 18:1.3362472 19:1.113856 20:1.3326491 21:1.4033483 22:-1.3344555 23:1.0071153 24:-0.19206792 25:0.44509571 26:-1.1406634 27:1.0415252 28:-1.1545967 29:1.3756838 30:-1.1478387 31:1.0008369 32:-0.19209608 33:0.5810993 34:-0.14725724 35:1.4442186 36:-0.12549097 37:1.4166539 38:-0.13604622 39:0.98559821 40:-0.15070864 41:-0.1614087 42:1.2112181 43:0.77355772 44:1.205003 45:1.3639368 46:-1.2081891 47:0.75910901 48:-0.3208369 49:-0.97559051 50:-1.0651545 51:-0.58674869 52:-1.06664 53:0.39776864 54:-1.0659535 55:-0.74417594 56:-0.12035712 57:-1.0492324 58:0.90939281 59:-3.0664897 60:0.91058037 61:-0.24765674 62:-0.90998983 63:-1.8476288 64:-0.77400182 
0.1642613077102016 0.1642613077102016 0 1:0.56431687 2:1.2913499 3:0.16623687 4:1.2864139 5:0.042511317 6:1.2889232 7:-0.37965363 8:0.57030715 9:0.38109962 10:1.2583847 11:0.53783741 12:1.2597244 13:0.011828151 14:1.2591758 15:-0.45003701 16:0.53997483 17:1.1520588 18:0.94567098 19:0.59460416 20:0.94645378 21:-0.023209201 22:-0.9460709 23:-0.36865683 24:0.45760637 25:1.0817644 26:-1.0440706 27:-0.14732458 28:-1.0506451 29:-0.016837876 30:-1.04759 31:-0.42217269 32:0.39380187 33:1.2201595 34:1.1449856 35:0.88583456 36:1.1309826 37:-0.0043289794 38:1.1381875 39:-0.32104807 40:0.44224386 41:1.05105 42:1.0246655 43:0.17449261 44:1.0244824 45:0.075288325 46:-1.0246493 47:-0.24088299 48:0.52470451 49:-1.076634 50:-1.0711133 51:0.13141167 52:-1.0727871 53:-1.4034534 54:-1.0720063 55:0.20125124 56:-0.74969916 57:-0.98270095 58:1.0683649 59:-0.7244048 60:1.0672013 61:-1.2745669 62:-1.0677857 63:0.14615105 64:0.42977646 
0.1642613077102016 0.1642613077102016 0.1486773860390561 1:-0.31639268 2:1.177461 3:-0.26940727 4:1.1762592 5:-1.4644563 6:1.1769059 7:1.018122 8:0.064993191 9:-0.3652025 10:1.183652 11:0.71992342 12:1.1882073 13:-1.4669312 14:1.1860543 15:1.038764 16:0.094585392 17:0.69171336 18:1.3861419 19:1.2116534 20:1.3805497 21:-1.4785592 22:-1.3833667 23:1.1981229 24:0.07731593 25:0.60515506 26:-1.1132465 27:1.1678208 28:-1.1252188 29:-1.4676379 30:-1.1194512 31:1.1742087 32:0.19861232 33:0.6946355 34:-0.31952308 35:0.86615505 36:-0.30146302 37:-1.4645106 38:-0.31097516 39:1.1572931 40:-0.037736431 41:0.04599466 42:1.1312664 43:-0.44157371 44:1.1279944 45:-1.4608853 46:-1.1297244 47:0.98526351 48:-0.016893327 49:-0.94883336 50:-1.1363407 51:-0.29103161 52:-1.1403423 53:0.060935616 54:-1.1383939 55:-0.95213469 56:0.060675201 57:-1.0630894 58:1.5510339 59:-2.3144858 60:1.547389 61:0.54408293 62:-1.5492133 63:-2.0627448 64:-1.3205624 
0.1642613077102016 0.1642613077102016 0.1642613077102016 1:0.062511749 2:0.99304629 3:-0.2919456 4:0.99611779 5:0.10057416 6:0.99463055 7:-0.86414802 8:0.072745034 9:-0.13162215 10:1.0720428 11:0.27378646 12:1.0805076 13:0.15297079 14:1.0764004 15:-0.93729016 16:0.036251486 17:0.76308841 18:1.7733886 19:-0.01402634 20:1.7584717 21:0.14459536 22:-1.7659207 23:-0.88370465 24:0.063096803 25:0.68340701 26:-1.1723775 27:-0.028900692 28:-1.1893509 29:0.15410845 30:-1.1810561 31:-0.90562867 32:0.084575979 33:0.85977035 34:-2.1834746 35:1.1947316 36:-2.2032924 37:0.15186202 38:-2.1937523 39:-0.82152594 40:0.031175212 41:0.6100738 42:1.2930826 43:-0.52429856 44:1.2816873 45:0.027797505 46:-1.2874433 47:-0.67231309 48:0.22494905 49:-0.9859633 50:-1.0913568 51:-0.046940942 52:-1.093737 53:1.3345135 54:-1.092602 55:0.53176085 56:-0.47920094 57:-0.94179848 58:1.3472466 59:-1.6859746 60:1.3434673 61:1.1792778 62:-1.3453531 63:0.17231478 64:0.71661257 
0.1642613077102016 0.1642613077102016 0.1642613077102016 1:0.36835506 2:1.0941971 3:1.4372866 4:1.0941809 5:1.3870611 6:1.0942378 7:1.3441791 8:0.6663003 9:0.25914977 10:1.1133145 11:1.3252159 12:1.119733 13:1.4082756 14:1.1166471 15:1.347221 16:0.83110891 17:1.0857032 18:1.4262396 19:0.12998406 20:1.4177401 21:1.3725292 22:-1.4219689 23:1.4587036 24:0.60556783 25:1.0647683 26:-1.076274 27:0.19818078 28:-1.085598 29:1.3934022 30:-1.0811505 31:1.4550385 32:0.53780119 33:1.1139952 34:-0.90946837 35:-0.41592534 36:-0.92819923 37:1.3583779 38:-0.91817175 39:1.4611424 40:0.56235947 41:0.65645167 42:1.1364173 43:0.91080494 44:1.1316938 45:1.409499 46:-1.1341119 47:1.3490401 48:0.48906081 49:-0.9378856 50:-1.009598 51:-1.4959808 52:-1.0092259 53:-0.42051718 54:-1.0094702 55:-1.5972438 56:-0.91240094 57:-1.0876542 58:1.0003671 59:-1.4705545 60:1.0015003 61:-0.83555736 62:-1.0009377 63:-2.0377518 64:-1.5519928 
0.1642613077102016 0.1642613077102016 0.1642613077102016 1:-0.80517879 2:1.1930339 3:-1.0159301 4:1.1920919 5:-0.73563061 6:1.1926151 7:-1.7845471 8:-0.54994757 9:-0.94199945 10:1.1401483 11:-1.2566312 12:1.1466836 13:-0.78359125 14:1.1435456 15:-1.8405268 16:-0.55750267 17:0.16240974 18:1.0229356 19:-1.1181033 20:1.0269403 21:-0.77721247 22:-1.0249663 23:-1.7625036 24:-0.9368591 25:0.035573123 26:-0.96812606 27:-1.1301558 28:-0.96781449 29:-0.76439846 30:-0.96823934 31:-1.7882863 32:-0.92907117 33:0.24054986 34:0.73688931 35:-2.2104137 36:0.7804984 37:-0.74233145 38:0.75885504 39:-1.7399672 40:-0.89954524 41:-0.27098003 42:0.93554479 43:-1.5776219 44:0.94149458 45:-0.62947902 46:-0.93862816 47:-1.6609992 48:-0.73140323 49:-0.76282116 50:-0.9797913 51:-0.78536534 52:-0.97853572 53:-1.4493901 54:-0.97922203 55:0.77987387 56:1.0445847 57:-0.86507726 58:1.1775867 59:0.724907 60:1.1745399 61:-0.96664516 62:-1.1760637 63:-0.16031046 64:1.160946 
0.1642613077102016 0.1642613077102016 0.0511461721878465 1:1.2775165 2:0.93395494 3:1.5754654 4:0.937085 5:-1.2661498 6:0.93555723 7:1.1355993 8:0.87225639 9:1.1201984 10:0.97367872 11:1.9393486 12:0.98442332 13:-1.2579393 14:0.97916308 15:1.1044301 16:0.90540695 17:1.6145072 18:1.1878892 19:0.53301998 20:1.1817762 21:-1.1623828 22:-1.1848464 23:1.1865766 24:1.0904069 25:1.6659906 26:-1.033239 27:1.9511389 28:-1.0398255 29:-1.2009437 30:-1.0367579 31:1.1574019 32:1.0723319 33:1.6820699 34:-0.068798026 35:0.84554566 36:-0.1055189 37:-1.189595 38:-0.087935726 39:1.195213 40:1.0310748 41:1.5398758 42:1.0943392 43:2.3263737 44:1.0898893 45:-1.2527259 46:-1.0921893 47:1.2167503 48:0.98081569 49:-0.97520561 50:-0.97215551 51:-1.0567297 52:-0.97059974 53:0.90128865 54:-0.97143674 55:-1.7024038 56:-1.1216382 57:-1.0593525 58:1.1247405 59:-0.2185682 60:1.1248688 61:1.2634589 62:-1.1248081 63:-0.86962191 64:-1.3358058 
0.1642613077102016 0.1642613077102016 0.1642613077102016 1:-1.3075233 2:0.76985968 3:-0.39176983 4:0.77825667 5:1.1105268 6:0.77410603 7:-0.72086241 8:-1.2395639 9:-1.3758587 10:0.89316883 11:-0.39440771 12:0.90751097 13:1.1312935 14:0.90045871 15:-0.65979608 16:-1.2097538 17:-0.15427385 18:1.2694807 19:0.97417471 20:1.2695792 21:1.1471101 22:-1.2695583 23:-0.51212701 24:-1.1473499 25:-0.28840649 26:-1.0615735 27:-0.44968869 28:-1.0682179 29:1.1445392 30:-1.0651478 31:-0.51017183 32:-1.2162719 33:-0.081207791 34:-0.73675127 35:0.4402609 36:-0.6853842 37:1.1021887 38:-0.71131646 39:-0.5444648 40:-1.1891778 41:-0.83358407 42:1.1798612 43:0.44849288 44:1.1764696 45:1.0467023 46:-1.1782696 47:-0.84620193 48:-1.2265286 49:-0.64342843 50:-0.94693785 51:1.3982786 52:-0.94467171 53:0.8932461 54:-0.94586381 55:0.35184177 56:0.90802217 57:-0.84966796 58:0.72576203 59:0.4887211 60:0.72639792 61:0.42689945 62:-0.7260801 63:-0.82057853 64:0.63280822 
0 0 0.01771512187129271 1:0.11545508 2:-0.88682114 3:2.3985464 4:-0.89512053 5:0.90482693 6:-0.89131719 7:0.039483709 8:-0.78523949 9:0.11856274 10:0.60766797 11:1.7347739 12:0.62614745 13:0.86066526 14:0.61951534 15:0.062799739 16:-0.81388473 17:0.011555844 18:1.7920818 19:1.6554328 20:1.6695453 21:1.0570749 22:-1.7307531 23:0.049419433 24:-0.93046884 25:0.087748281 26:-1.2275971 27:1.4044825 28:-1.7263397 29:0.94763999 30:1.464772 31:0.1639949 32:-1.1339901 33:1.6116474 34:1.5273655 35:1.3871894 36:1.4493732 37:-1.0767914 38:-1.4889101 39:1.1095465 40:-0.55244972 41:-0.11917867 42:1.3497109 43:-1.4705747 44:1.3242527 45:0.35465383 46:-1.3369771 47:-0.11606526 48:-0.90938537 49:0.13533097 50:1.8268415 51:2.1275553 52:1.7284772 53:1.6735496 54:-1.7774137 55:0.25127795 56:-0.88471744 57:0.10726066 58:1.4706392 59:0.6375997 60:1.4364353 61:1.3903322 62:-1.4535096 63:0.25025293 64:-0.91247213 
0.06669035941014001 0 0 1:0.11401037 2:-0.67560545 3:1.1280615 4:-0.6672782 5:-0.046206516 6:-0.67178598 7:-0.092513838 8:0.39768476 9:0.12066402 10:0.71881622 11:0.70635995 12:0.69938018 13:-0.15028296 14:0.7107776 15:-0.043555188 16:0.87916647 17:-0.022774712 18:1.7256654 19:0.66312407 20:1.6182048 21:0.11685505 22:-1.6721902 23:-0.033002765 24:0.065442334 25:0.068880931 26:-1.2616327 27:1.0267494 28:-1.8775562 29:-1.6028588 30:1.540327 31:-0.085879597 32:1.1536344 33:1.7779532 34:1.5251983 35:1.5140631 36:1.4476457 37:-0.32490215 38:-1.4869702 39:0.82660128 40:-0.54023348 41:0.077460332 42:1.2908932 43:-1.0253269 44:1.2698437 45:-2.4103175 46:-1.2803912 47:0.70450924 48:-0.011816286 49:0.069014137 50:1.7884041 51:0.093550685 52:1.6968909 53:-0.11132412 54:-1.742518 55:0.015864848 56:-0.31051426 57:0.051437165 58:1.4604925 59:1.2118384 60:1.4271504 61:-0.48703634 62:-1.4438003 63:0.01642201 64:-0.76736143 
0.01420404447821812 0 0 1:0.049443705 2:-0.81256708 3:1.0212504 4:-0.81570254 5:-1.3470958 6:-0.81446434 7:-0.023928339 8:0.43635681 9:0.048934432 10:0.76201217 11:0.42561965 12:0.72819915 13:-1.3353552 14:0.74646945 15:-0.10848673 16:-0.17649721 17:-0.049662428 18:1.6799133 19:0.45964442 20:1.5827912 21:0.36638299 22:-1.6318214 23:-0.041531604 24:-0.91705706 25:0.035311645 26:-1.2889811 27:1.1574715 28:-2.0002499 29:-1.0021077 30:1.6013387 31:-0.085690268 32:-0.69449231 33:1.562974 34:1.5519663 35:-0.13678367 36:1.4689284 37:1.4590306 38:-1.5109006 39:0.16829201 40:-0.53837667 41:-0.11863234 42:1.2811452 43:-1.0366383 44:1.2608355 45:-0.4170612 46:-1.2710179 47:-0.096140392 48:-0.31300582 49:-0.0046571843 50:1.7344131 51:0.37030205 52:1.6523627 53:0.48701636 54:-1.6934132 55:-0.17380431 56:-0.7946932 57:-0.0054900576 58:1.4321799 59:-0.030126027 60:1.4012184 61:-0.061694004 62:-1.4166955 63:-0.07752539 64:-0.81584188 
0.0105098035199849 0.1208818382586863 0 1:0.035037044 2:-1.3542969 3:0.45343163 4:-1.4183326 5:1.1438985 6:-1.3862343 7:-0.13523733 8:-0.86584154 9:0.040996814 10:0.69409836 11:-1.5133475 12:0.68389671 13:1.4560483 14:0.69098244 15:-0.17679608 16:-0.8281883 17:-0.060630224 18:1.4691257 19:-0.27262664 20:1.4160181 21:0.42016012 22:-1.4437868 23:-0.27114613 24:-0.89222573 25:0.033344973 26:-1.1943681 27:0.18478239 28:-1.5992517 29:0.9063379 30:1.3963045 31:-0.16191935 32:-0.79131581 33:1.1127675 34:1.4022964 35:0.47218749 36:1.3489208 37:-0.47095701 38:-1.376532 39:-0.3145825 40:-0.54012458 41:-0.16297664 42:1.1925054 43:-1.9403799 44:1.1785369 45:0.49735863 46:-1.1855843 47:-0.4193678 48:-0.87625963 49:0.043379872 50:1.4732027 51:0.70820512 52:1.4331274 53:-0.039128672 54:-1.4537545 55:-0.015749116 56:-0.96698256 57:0.0089743119 58:1.3186686 59:-0.28595103 60:1.2968241 61:0.34622899 62:-1.3078034 63:-0.19974524 64:-0.8908278 
0.1290531326033515 0 0 1:0.037662641 2:-1.3871921 3:1.1438801 4:-1.4560067 5:-1.2064458 6:-1.421464 7:0.075392747 8:-0.80238271 9:0.037947521 10:0.67662743 11:0.94342945 12:0.6723356 13:-0.795621 14:0.67660571 15:0.042121596 16:-0.88304292 17:-0.051544238 18:1.4923324 19:0.45464351 20:1.4346255 21:-0.53140308 22:-1.4646272 23:0.021621443 24:-0.90021681 25:0.01227249 26:-1.1525188 27:1.1040569 28:-1.454414 29:-0.31544412 30:1.3142804 31:-0.0061754937 32:-0.91605652 33:1.2639219 34:1.4439663 35:1.8170898 36:1.3825865 37:-0.5944097 38:-1.414084 39:0.63557028 40:-0.59803229 41:-0.14009872 42:1.2293666 43:-1.3388608 44:1.2128177 45:0.67628925 46:-1.2211415 47:-0.22727397 48:-0.83915212 49:0.025276338 50:1.4763277 51:0.66755845 52:1.4357872 53:0.60033465 54:-1.4566418 55:0.037143223 56:-0.95698197 57:-0.0089271964 58:1.3321938 59:0.24352204 60:1.309299 61:1.1561314 62:-1.3207969 63:-0.046271758 64:-0.8847719 
0.1642613077102016 0.1642613077102016 0.1642613077102016 1:0.032518565 2:-1.3470198 3:1.0242458 4:-1.4100115 5:-0.40559176 6:-1.3784469 7:-0.13734041 8:-0.8913427 9:0.041628824 10:0.67374841 11:0.55894017 12:0.6704232 13:-0.56877332 14:0.67423208 15:-0.13212646 16:-0.85273638 17:-0.035764647 18:1.5066338 19:1.6152551 20:1.4460618 21:-0.86229083 22:-1.4774531 23:0.021211422 24:-0.91110564 25:0.037641266 26:-1.1318549 27:1.2236895 28:-1.3883981 29:-2.7511882 30:1.2753636 31:-0.03530273 32:-0.92504836 33:1.0160439 34:1.4609198 35:0.5692312 36:1.3962191 37:1.0127519 38:-1.4293262 39:0.19248397 40:-0.53362752 41:-0.11335349 42:1.2469937 43:-0.88875938 44:1.2291866 45:-3.0571827 46:-1.2381326 47:-0.081608489 48:-0.85406123 49:0.076365496 50:1.4805103 51:1.6249356 52:1.4393458 53:-2.6519859 54:-1.4605056 55:0.24493267 56:-0.9435768 57:0.029772103 58:1.3390726 59:0.35416073 60:1.3156398 61:-2.7735917 62:-1.3274034 63:0.087192283 64:-0.88066521 
0.1642613077102016 0 0 1:0.10451886 2:-1.3687141 3:0.6363448 4:-1.4348114 5:-1.5115081 6:-1.4016592 7:0.086137438 8:-0.90109534 9:0.13711558 10:0.65801117 11:1.0456029 12:0.65995234 13:-1.1626901 14:0.66124661 15:0.15687739 16:-0.86624133 17:0.0064380208 18:1.518284 19:0.3449757 20:1.4553618 21:-0.64203761 22:-1.4878923 23:-0.039577674 24:-0.96579976 25:0.099757203 26:-1.1086778 27:1.0547182 28:-1.3180243 29:-0.15412753 30:1.2328093 31:0.14443299 32:-1.0169385 33:1.2761967 34:1.481438 35:-0.0052692022 36:1.4126725 37:1.232579 38:-1.4477477 39:0.94516612 40:-0.46112359 41:-0.12213528 42:1.265079 43:-0.973486 44:1.2459651 45:1.1975908 46:-1.2555569 47:-0.13084476 48:-0.97585304 49:0.13442934 50:1.4814963 51:1.1350269 52:1.4401833 53:0.3183093 54:-1.4614157 55:0.17853677 56:-0.86230539 57:0.080053556 58:1.3459879 59:0.81361228 60:1.3220119 61:0.58839991 62:-1.3340437 63:0.084686194 64:-0.89563578 
0.09207270047200543 0 0.1079845870623954 1:0.1141046 2:-1.3735645 3:0.68381875 4:-1.4403947 5:1.429454 6:-1.4068671 7:0.13546221 8:-0.80284392 9:0.11360235 10:0.64332887 11:1.0826232 12:0.65014232 13:1.6629364 14:0.64910617 15:0.11866577 16:-0.86697669 17:-0.030584683 18:1.5277711 19:-0.22588991 20:1.4629229 21:1.4043446 22:-1.4963863 23:-0.1856939 24:-0.98815436 25:0.08420737 26:-1.0879667 27:1.4275457 28:-1.2582832 29:1.8530906 30:1.1957455 31:0.12656063 32:-0.89559093 33:1.1294719 34:1.4979984 35:-0.52870273 36:1.4259451 37:-0.05555912 38:-1.4626118 39:-0.38368669 40:-0.59243176 41:-0.10346947 42:1.2733768 43:-1.0658607 44:1.2536565 45:1.6244886 46:-1.263548 47:0.024395713 48:-0.88821736 49:0.026000666 50:1.4754951 51:-0.63858124 52:1.4350787 53:1.5215549 54:-1.4558726 55:-0.2272882 56:-0.98566307 57:0.020039505 58:1.347868 59:-0.81492077 60:1.3237441 61:1.4033208 62:-1.3358489 63:-0.17766074 64:-0.94508565 
